tree
version=v3
num_class=222
num_tree_per_iteration=222
label_index=0
max_feature_idx=19
objective=multiclass num_class:222
feature_names=feature_0 feature_1 feature_2 feature_3 feature_4 feature_5 feature_6 feature_7 feature_8 feature_9 feature_10 feature_11 feature_12 feature_13 feature_14 feature_15 feature_16 feature_17 feature_18 feature_19
feature_infos=[0:0.98433148896562439] [0.067830271712652199:1] [0:1] [0:1] [0:1] [0:1] [0:1] [0:1] [0:1] [0:0.40295038709600611] [0:1] [0:1] [0:1] [0:1] [0:1] [0:1] [0:1] [0:1] [0:1] [0:1]
tree_sizes=3771 3714 3745 3663 3706 3738 3659 3756 3691 3700 3649 3766 3635 3697 3713 3707 3624 3654 3749 3731 3716 3731 3660 3731 3693 3620 3692 3647 3677 3692 3677 3637 3672 3776 3660 3729 3728 3724 3738 3646 3617 3701 3749 3685 3700 3679 3689 3659 3656 3697 3716 3666 3698 3703 3706 3676 3677 3748 3615 3764 3700 3702 3643 3613 3715 3762 3636 3677 3718 3683 3650 3633 3679 3654 3723 3780 3722 3632 3750 3583 3671 3621 3694 3682 3647 3712 3633 3792 3691 3723 3703 3649 3637 3726 3712 3714 3668 3639 3683 3748 3698 3644 3676 3707 3632 3744 3731 3650 3682 3653 3699 3706 3709 3740 3695 3666 3727 3676 3699 3766 3656 3733 3670 3711 3726 3663 3677 3675 3662 3758 3699 3699 3664 3650 3700 3712 3690 3662 3753 3679 3634 3675 3730 3760 3688 3710 3644 3703 3705 3701 3665 3714 3733 3654 3707 3728 3715 3739 3714 3694 3699 3705 3704 3677 3748 3673 3725 3662 3728 3644 3680 3653 3569 3684 3680 3657 3679 3695 3686 3689 3737 3678 3701 3685 3670 3568 3712 3662 3647 3707 3709 3747 3758 3697 3709 3739 3676 3619 3683 3579 3664 3688 3707 3704 3706 3665 3733 3640 3703 3762 3686 3707 3741 3726 3703 3723 3638 3663 3689 3675 3701 3714 3823 3856 3817 3822 3861 3818 3835 3809 3782 3797 3843 3811 3822 3824 3817 3822 3826 3803 3816 3812 3824 3813 3829 3836 3839 3818 3842 3801 3852 3834 3838 3808 3849 3828 3829 3836 3835 3838 3817 3796 3859 3832 3858 3815 3830 3858 3833 3823 3814 3823 3811 3846 3829 3820 3800 3836 3799 3813 3809 3806 3821 3839 3834 3806 3798 3831 3817 3810 3805 3807 3830 3824 3825 3851 3841 3809 3812 3820 3839 3813 3822 3844 3834 3821 3826 3825 3802 3849 3820 3815 3828 3829 3871 3825 3810 3833 3828 3830 3809 3876 3809 3843 3838 3858 3857 3804 3838 3830 3839 3858 3828 3817 3810 3815 3846 3855 3837 3844 3852 3840 3831 3855 3801 3823 3801 3846 3813 3810 3818 3818 3844 3811 3873 3823 3862 3828 3851 3854 3830 3812 3808 3832 3815 3819 3826 3787 3809 3870 3841 3822 3853 3819 3824 3829 3853 3821 3849 3809 3819 3803 3800 3829 3846 3786 3835 3849 3803 3818 3868 3820 3847 3821 3812 3789 3817 3807 3820 3836 3828 3791 3801 3819 3835 3803 3854 3791 3834 3798 3827 3826 3847 3886 3847 3838 3826 3825 3821 3822 3797 3835 3790 3836 3830 3865 3829 3827 3831 3835 3815 3819 3819 3846 3820 3827 3826 3833 3805 3815 3798 3824 3827 3823 3826 3843 3805 3805 3833 3834 3816 3823 3818 3818 3863 3845 3841 3862 3805 3819 3839 3805 3828 3812 3811 3793 3829 3841 3845 3828 3837 3819 3858 3841 3839 3846 3822 3812 3838 3812 3819 3839 3804 3836 3841 3827 3837 3829 3839 3828 3839 3849 3862 3821 3831 3831 3812 3822 3827 3825 3849 3791 3819 3813 3829 3839 3832 3827 3828 3847 3811 3838 3791 3808 3843 3826 3831 3853 3842 3831 3822 3814 3851 3821 3859 3808 3797 3854 3825 3818 3824 3836 3845 3834 3867 3828 3858 3830 3821 3827 3817 3818 3802 3832 3810 3822 3839 3823 3873 3804 3834 3822 3837 3855 3807 3798 3800 3821 3845 3818 3871 3848 3816 3837 3823 3823 3811 3816 3887 3864 3815 3839 3840 3792 3810 3822 3869 3848 3843 3801 3797 3822 3810 3808 3821 3839 3828 3827 3851 3846 3822 3808 3842 3833 3838 3839 3808 3802 3860 3850 3838 3848 3866 3843 3804 3813 3811 3809 3832 3809 3820 3814 3803 3818 3821 3832 3807 3806 3828 3817 3824 3820 3835 3810 3839 3837 3832 3787 3813 3805 3818 3823 3837 3818 3817 3816 3845 3833 3825 3830 3826 3827 3816 3846 3785 3782 3821 3848 3828 3838 3868 3789 3819 3822 3815 3805 3808 3826 3850 3814 3845 3807 3830 3826 3814 3867

Tree=0
num_leaves=31
num_cat=0
split_feature=0 0 19 19 7 19 9 7 7 2 7 2 7 2 19 7 2 7 2 7 2 19 7 4 7 2 19 0 14 0
split_gain=53.9375 1473.11 0.0532367 2.48901 3.08088e-07 6.8735e-06 0.000163006 2.53768e-07 3.63021e-09 9.45313e-10 9.15948e-10 8.78175e-10 8.3146e-10 8.41311e-10 8.36488e-10 2.27893e-09 8.84928e-10 8.7623e-10 8.49459e-10 5.0207e-10 6.98746e-10 2.18687e-10 1.21196e-09 6.26415e-10 5.66574e-10 5.05934e-10 8.93321e-11 3.29505e-11 1.06785e-10 8.98694e-11
threshold=0.59523882427085228 0.59571153088475592 0.00032817743784655006 0.00027608599779405004 1.2253030740026506e-05 0.00031087656741815003 0.0041742496696019508 1.0000000180025095e-35 7.3204004164773736e-05 0.00018976500557350002 0.00022652397855275002 0.00049452006419330012 0.0008354053522494502 0.0010154312881022001 0.00016656854672655004 0.0017345893004021503 0.0023522691998828504 0.0044456508967019009 0.0050620757778165508 0.0055053809655764511 0.008360656561784802 0.00013231654432775003 0.010997880539862202 3.1768235126338435e-11 0.014379402843834151 0.075672566138131309 4.7444885963862585e-05 0.59263149784634017 1.0000000180025095e-35 0.59204196417671551
decision_type=2 2 2 2 2 2 2 2 2 2 2 2 2 2 2 2 2 2 2 2 2 2 2 2 2 2 2 2 2 2
left_child=4 -2 3 8 5 6 7 -1 -3 -10 -11 -12 -13 -14 15 -15 -17 -18 -19 -20 -21 22 -22 -24 -25 -26 -27 28 -6 -30
right_child=1 2 -4 -5 27 -7 -8 -9 9 10 11 12 13 14 -16 16 17 18 19 20 21 -23 23 24 25 26 -28 -29 29 -31
leaf_value=-5.4518787350353737 5.6165129760101973 -5.4525857399213518 -5.4526773634959591 -3.6384151114038525 -5.4526802821471785 -5.4526773634959591 -5.4328073617694672 -5.4526773825344366 -5.4527253576197499 -5.4526301273061888 -5.4527238278808703 -5.4526345596274437 -5.4527219197857288 -5.4526197917404211 -5.4527175073681473 -5.4527242329109571 -5.4526322764477291 -5.4527224001761088 -5.4526518466621452 -5.4527145590438701 -5.4526467202700468 -5.4526871740449749 -5.4527040272864484 -5.4526544643813093 -5.4527049023133447 -5.452675721126325 -5.4526800801021 -5.4526756548604975 -5.4526773727242652 -5.4526726616244749
leaf_weight=0.0010353142879003787 0.031300015298256656 0.0010810911082899102 0.689951426302855 0.0019357412966201073 0.03153029984088096 0.55475372926969158 0.0010777725310617816 0.025318838794191834 0.001039224918713443 0.0010133558662346323 0.0010302510272595091 0.0011183564020029726 0.0010743708808149668 0.0017204960262233717 0.0012749641078926279 0.0010213479363301295 0.0010617235384415826 0.0010629109456203869 0.0018760156817734233 0.0012869814527221015 0.0032322365844663628 0.0052164435798260902 0.0022540119065723721 0.0026245775112130323 0.0017247454961761824 0.031266285879127054 0.018833990367539855 0.027798469835033646 5.5443436976385669 0.010141433262106037
leaf_count=4005 16682 9381 30410 1564 204 12996 3276 64784 7766 6436 9906 8577 6242 10086 1812 12728 13887 10308 11885 12481 20189 10408 21859 12544 37419 1119382 90017 4057 3718702 98342
internal_value=-5.40268 -5.01738 -5.44813 -5.41024 -5.45267 -5.45264 -5.45187 -5.45265 -5.45268 -5.45268 -5.45268 -5.45268 -5.45268 -5.45268 -5.45268 -5.45268 -5.45268 -5.45268 -5.45268 -5.45268 -5.45268 -5.45268 -5.45268 -5.45268 -5.45268 -5.45268 -5.45268 -5.45268 -5.45268 -5.45268
internal_weight=0 0.804001 0.772701 0.0827491 6.196 0.582186 0.0274319 0.0263542 0.0808134 0.0797323 0.0786931 0.0776797 0.0766495 0.0755311 0.0744567 0.0731818 0.0714613 0.0704399 0.0693782 0.0683153 0.0664393 0.0651523 0.0599358 0.0567036 0.0544496 0.051825 0.0501003 5.61381 5.58602 5.55449
internal_count=5388335 1481969 1465287 1434877 3906366 85061 72065 68789 1433313 1423932 1416166 1409730 1399824 1391247 1385005 1383193 1373107 1360379 1346492 1336184 1324299 1311818 1301410 1281221 1259362 1246818 1209399 3821305 3817248 3817044
is_linear=0
shrinkage=1


Tree=1
num_leaves=31
num_cat=0
split_feature=16 17 7 7 19 16 2 2 16 7 2 16 2 8 16 2 3 16 2 7 16 2 16 2 8 16 2 16 2 1
split_gain=29.1395 1517.89 4.89901e-07 6.88293e-08 3.0814e-09 2.6906e-09 6.67292e-08 5.08994e-08 3.10588e-09 8.39263e-08 8.02286e-08 3.11513e-09 7.17328e-08 1.34148e-08 3.1146e-09 6.24061e-08 6.1303e-09 3.12137e-09 8.52507e-08 6.9072e-08 3.1074e-09 5.93959e-08 3.10483e-09 7.20044e-08 1.55009e-08 3.1012e-09 7.17458e-08 3.09833e-09 6.88829e-08 3.20293e-09
threshold=0.013727531975713102 1.0000000180025095e-35 0.0097876581190780524 1.0000000180025095e-35 0.00030861759566145009 0.015606705303682302 1.3509760330568128e-05 0.0021659601795101006 0.015859340003484053 0.00063558669710440008 2.9847144916371442e-05 0.016277989405262653 4.4927807610959125e-05 0.0033173825313549004 0.017182931696107753 6.0636831251154613e-05 7.1058697103989936e-09 0.018217243657325254 7.3204050163311018e-05 6.0636793149361944e-05 0.019139055414907354 8.7656351912290882e-05 0.019739568371325452 0.0001083922631173 0.035682864096318205 0.020075933965340353 0.00012661473053990002 0.020350427457284857 0.00014200957370730003 0.9999894620531885
decision_type=2 2 2 2 2 2 2 2 2 2 2 2 2 2 2 2 2 2 2 2 2 2 2 2 2 2 2 2 2 2
left_child=4 2 -2 -3 -1 7 -7 -5 9 -8 -10 13 -13 -12 16 -16 -14 19 -19 -17 -20 -22 24 -24 -23 -25 -27 29 -29 -28
right_child=1 3 -4 5 -6 6 8 -9 10 -11 11 12 14 -15 15 17 -18 18 20 -21 21 22 23 25 -26 26 27 28 -30 -31
leaf_value=-5.4526617355174496 5.6477418460377429 -5.4530466085187586 5.6473458049961458 -5.4523894276161533 -5.4526774090933463 -5.4530100916094231 -5.4522426198867482 -5.4526774083139493 -5.4530766430169448 -5.4526774092850188 -5.4525946718307559 -5.4530343464911217 -5.4526309532796464 -5.4526774090933445 -5.4529878734310797 -5.4523173576353843 -5.4526774135908767 -5.4531016863458373 -5.4526614955257173 -5.4526774096748598 -5.4529728683444443 -5.4525843060810741 -5.4530357355111221 -5.4526614974592844 -5.4526774162184344 -5.4530344322766853 -5.4526455437686536 -5.4530202152952274 -5.4526769206023902 -5.452677414993806
leaf_weight=0.031534438858422109 0.014235677197575458 0.0012611804304468724 0.017295235767960548 0.0016174305058312957 5.6126127690076828 0.001505531362823719 0.0011519930592668306 0.02987322299668449 0.001257131872506422 0.030368126301482334 0.0060660659334813563 0.0014059695816114317 0.010804571587271883 0.025467792525887489 0.0016164240829822365 0.001393850811538643 0.020707410590148356 0.0011827578982347422 0.031533835027218404 0.030028979914504816 0.0016984264813827412 0.0053919072667979453 0.0014001853803761169 0.03153190535310546 0.026142057031393051 0.0014052984864320042 0.015748078519365438 0.0014633089131875767 1.0265143803027852 0.015783891081809998
leaf_count=204 9089 4779 11042 1242 350223 5595 1093 22968 5372 28869 775 5971 9393 3255 5670 1516 18006 5533 8063 32716 5324 3707 6453 16343 17981 5855 29087 6348 4736706 29157
internal_value=-5.40268 -5.19454 5.64752 -5.45268 -5.45268 -5.45268 -5.45268 -5.45266 -5.45268 -5.45266 -5.45268 -5.45268 -5.45268 -5.45266 -5.45268 -5.45268 -5.45266 -5.45268 -5.45268 -5.45266 -5.45268 -5.45268 -5.45268 -5.45268 -5.45266 -5.45268 -5.45268 -5.45268 -5.45268 -5.45266
internal_weight=0 1.35585 0.0315309 1.32432 5.64415 1.32306 1.29157 0.0314907 1.29006 0.0315201 1.25854 1.25729 1.22575 0.0315339 1.22435 1.19284 0.031512 1.19122 1.1598 0.0314228 1.15861 1.12708 1.12538 1.09385 0.031534 1.09245 1.06091 1.05951 1.02798 0.031532
internal_count=5388335 5037908 20131 5017777 350427 5012998 4988788 24210 4983193 29962 4953231 4947859 4943829 4030 4937858 4910459 27399 4904789 4870557 34232 4865024 4856961 4851637 4829949 21688 4823496 4807153 4801298 4743054 58244
is_linear=0
shrinkage=1


Tree=2
num_leaves=31
num_cat=0
split_feature=15 15 9 10 2 10 2 10 1 2 1 2 10 4 2 9 10 2 10 2 7 2 7 8 2 7 2 7 0 2
split_gain=43.1291 1503.87 4.71139e-08 8.14962e-09 2.04768e-08 2.01689e-08 1.18225e-08 1.22723e-08 2.81916e-09 2.86761e-09 3.62296e-09 3.45162e-09 1.96677e-09 2.28455e-08 1.2139e-08 1.3055e-08 3.96091e-09 1.48971e-08 2.38205e-08 2.41469e-08 1.92607e-09 1.52531e-08 1.51255e-09 2.76624e-08 2.14504e-08 1.89555e-09 6.08402e-09 2.87288e-08 2.02429e-08 1.11607e-08
threshold=0.0039817077951583004 0.0041267076747593008 3.679482420386734e-05 0.014638187920740451 1.3509760330568128e-05 0.022828872614305554 2.9847144916371442e-05 0.16128213556030638 0.34582529649587818 4.4927807610959125e-05 0.43214072413844656 6.0636831251154613e-05 0.03290560443174801 0.013236418631994202 8.7656351912290882e-05 0.0056446252643401014 0.045310040480124651 0.0001083922631173 0.051676081863218502 0.00012661473053990002 1.0000000180025095e-35 0.00014200957370730003 2.1992619276970653e-06 0.00072828636371805001 0.00015928949971150003 3.4559830292382452e-06 0.00017688360618855003 2.0421717900044177e-05 0.39884395176828896 0.00021332854103380002
decision_type=2 2 2 2 2 2 2 2 2 2 2 2 2 2 2 2 2 2 2 2 2 2 2 2 2 2 2 2 2 2
left_child=-1 2 -2 -3 -5 -6 7 -7 -8 -10 -11 -12 13 -13 15 -14 -16 -18 -19 -20 -21 -22 23 -23 -24 -26 28 -28 -27 -29
right_child=1 3 -4 4 5 6 8 -9 9 10 11 12 14 -15 16 -17 17 18 19 20 21 22 24 -25 25 26 27 29 -30 -31
leaf_value=-5.4526773893097404 5.6469909985001685 -5.4528118364802447 5.6473151542672824 -5.4524712581826522 -5.4528804339913011 -5.4524346310813163 -5.452738929757591 -5.4526773931467076 -5.4526154776107525 -5.4527562185297516 -5.4526024656256107 -5.4529262392395967 -5.4524264980505244 -5.4526773859083271 -5.4527167737751325 -5.4526773935587851 -5.4525290158276913 -5.4529146816229321 -5.4524367373833638 -5.4526948932822972 -5.4525380653132549 -5.452944232789795 -5.4524811438590719 -5.4526773938969857 -5.4526946782569183 -5.4524350505759429 -5.4529416687613113 -5.4525746051505131 -5.452677393896975 -5.4526775108247936
leaf_weight=6.0225234520029503 0.0011638950745690426 0.0011258656975883232 0.030367688443220686 0.0012050830325165398 0.0012227441496257532 0.0010223551041157455 0.0018637942125820919 0.0010607461672407226 0.0018674548513075697 0.0014593334499437552 0.0015352193545226092 0.001001485571375583 0.0010007960911231342 0.011658061295747757 0.0063762141539207553 0.0010758243097370723 0.0016922617856600644 0.0010573954136141586 0.0010425755109046966 0.015649273943154185 0.0019655115963814742 0.0010240310689368917 0.0013929711573155137 0.018844267120584846 0.015783803466888457 0.0011210695244017179 0.0010280208610993205 0.0026430632984784088 0.0037243006772769149 0.84550137123915192
leaf_count=2596654 379 6177 9889 3956 2678 2604 4784 2277 5366 3028 5028 2717 3449 1490 3795 4942 5282 3909 4511 4165 4744 3024 4306 33812 29157 1723 4341 9997 4184 2615967
internal_value=-5.40268 -5.09461 5.6473 -5.45268 -5.45268 -5.45268 -5.45268 -5.45256 -5.45268 -5.45268 -5.45268 -5.45268 -5.45268 -5.4527 -5.45268 -5.45256 -5.45268 -5.45268 -5.45268 -5.45268 -5.45268 -5.45268 -5.45268 -5.45269 -5.45268 -5.45268 -5.45268 -5.45268 -5.45262 -5.45268
internal_weight=0 0.977476 0.0315316 0.945945 0.944819 0.943614 0.942391 0.0020831 0.940308 0.938444 0.936577 0.935118 0.933582 0.0126595 0.920923 0.00207662 0.918846 0.91247 0.910778 0.90972 0.908678 0.893028 0.891063 0.0198683 0.871195 0.869802 0.854018 0.849172 0.00484537 0.848144
internal_count=5388335 2791681 10268 2781413 2775236 2771280 2768602 4881 2763721 2758937 2753571 2750543 2745515 4207 2741308 8391 2732917 2729122 2723840 2719931 2715420 2711255 2706511 36836 2669675 2665369 2636212 2630305 5907 2625964
is_linear=0
shrinkage=1


Tree=3
num_leaves=31
num_cat=0
split_feature=19 0 10 12 19 10 0 9 10 0 19 2 10 9 7 19 10 12 1 10 10 0 1 10 0 1 7 10 0 1
split_gain=122.5 1304.96 6.51938e-09 2.44442e-07 6.59174e-09 1.23315e-09 1.30335e-07 8.62234e-09 2.28932e-09 9.78064e-08 1.56313e-08 1.28165e-07 2.4035e-09 6.96976e-08 6.14016e-09 2.76819e-07 4.01583e-09 2.43529e-07 6.07547e-09 2.01235e-07 3.21938e-09 3.01994e-07 3.0366e-08 7.44231e-09 3.17456e-07 6.59888e-08 9.60542e-08 8.18502e-09 3.22443e-07 1.98339e-08
threshold=0.15794080848738043 0.61987743596476996 1.0000000180025095e-35 4.3227367637143131e-13 1.0000000180025095e-35 0.0066321773552047011 0.25965091053497474 2.6313525561133082e-06 0.014638187920740451 0.2717951862106705 5.7776126760597889e-06 0.0091753265277653515 0.022828872614305554 3.8246581817548234e-05 1.0000000180025095e-35 0.00021780636678545004 0.03290560443174801 4.1754407586239955e-12 0.2816852174616078 0.045310040480124651 0.045310040480124651 0.33279023210964104 0.29599749729135511 0.051676081863218502 0.34638384755466239 0.34582529649587818 5.2468105989344274e-05 0.056415773536616309 0.36264187691609706 0.3732723397798377
decision_type=2 2 2 2 2 2 2 2 2 2 2 2 2 2 2 2 2 2 2 2 2 2 2 2 2 2 2 2 2 2
left_child=2 -2 3 -1 -4 6 -6 -7 9 -9 11 -10 13 -12 15 -14 17 -16 19 -18 21 -20 -22 24 -24 26 -25 28 -27 -29
right_child=1 -3 4 -5 5 7 -8 8 10 -11 12 -13 14 -15 16 -17 18 -19 20 -21 22 -23 23 25 -26 27 -28 29 -30 -31
leaf_value=-5.4519619475368 -5.4526770845596033 4.7934767468331172 -5.452700334552679 -5.4526773831738415 -5.4521824525187803 -5.4527100825536712 -5.4526773829404114 -5.4523000168250828 -5.4532186797816156 -5.4526773826169457 -5.4524062526533594 -5.4526773835008688 -5.4534940784808148 -5.4526773829257023 -5.4519631441573662 -5.4526773829206858 -5.4532402901675558 -5.4526773816715775 -5.4518490083934701 -5.4526773829206858 -5.4527599645406619 -5.452677382934402 -5.4517955581716633 -5.4531174653141132 -5.4526773829936372 -5.4517799119491057 -5.4526773829057271 -5.4527313822687633 -5.452677382938564 -5.4526773796955368
leaf_weight=0.0012254898541711459 0.34421914443373669 0.034159157425165176 0.031533882034651017 0.04634485369679453 0.0013422868819644709 0.020270110890937221 0.14754698354677487 0.0017563896477134069 0.0012273333369420278 0.076654558446911381 0.0024503701314272366 0.01003256701568489 0.0010607761531601359 0.072530091213934611 0.0012128679890607277 0.047419113006753832 0.0016360645975374002 0.074558959822951465 0.0011117604939804284 0.053717916798689203 0.011151817514320927 0.10609920873849887 0.0010443553906717131 0.0020924302339188064 0.044881780207134625 0.0010260414172583712 0.0030432086778091616 0.017052775308659451 0.040698148642974274 5.800899556978532
leaf_count=6 213 9 1128869 687 559 570831 7505 27 34547 8260 2468 282532 4230 6127 1 3068 104 8266 731 6528 9405 8707 2340 182 6391 301 591 9927 2626 3282297
internal_value=-5.40268 -4.52768 -5.45268 -5.45266 -5.45268 -5.45268 -5.45267 -5.45268 -5.45268 -5.45267 -5.45268 -5.45274 -5.45268 -5.45267 -5.45268 -5.4527 -5.45268 -5.45267 -5.45268 -5.45269 -5.45268 -5.45267 -5.45268 -5.45268 -5.45266 -5.45268 -5.45286 -5.45268 -5.45266 -5.45268
internal_weight=0 0.378378 6.62162 0.0475703 6.57405 6.54252 0.148889 6.39363 6.37336 0.0784109 6.29495 0.0112599 6.28369 0.0749805 6.20871 0.0484799 6.16023 0.0757718 6.08446 0.055354 6.0291 0.107211 5.92189 5.91074 0.0459261 5.86481 0.00513564 5.85968 0.0417242 5.81795
internal_count=5388335 222 5388113 693 5387420 4258551 8064 4250487 3679656 8287 3671369 317079 3354290 8595 3345695 7298 3338397 8267 3330130 6632 3323498 9438 3314060 3304655 8731 3295924 773 3295151 2927 3292224
is_linear=0
shrinkage=1


Tree=4
num_leaves=31
num_cat=0
split_feature=17 17 9 19 17 19 1 17 0 19 7 17 8 19 17 7 19 0 9 0 3 19 9 19 9 19 9 7 19 9
split_gain=17.2813 1529.72 6.64818e-08 1.42249e-08 6.77468e-09 1.42359e-08 4.25959e-07 1.37644e-08 3.0694e-07 1.42444e-08 4.23068e-07 1.3756e-08 3.61007e-08 1.42534e-08 1.37468e-08 3.91633e-07 1.4263e-08 7.03117e-09 3.09058e-09 1.9331e-08 2.2203e-08 2.51663e-09 2.1418e-09 2.52651e-09 6.60395e-08 2.53053e-09 4.81e-08 3.69448e-08 2.33016e-09 5.9856e-08
threshold=0.00081060170660235008 0.0008746577964970501 3.9911798798947247e-05 5.7776126760597889e-06 0.00097842937407960026 1.3954611472450867e-05 0.61143859950405866 0.0010151524455908501 0.37305472442568371 2.3264322369196011e-05 5.1839745438573678e-05 0.0011904309325036003 1.2499842614107797e-06 2.9342468137406398e-05 0.0014033267855899001 0.00063558669710440008 3.5613008812836006e-05 0.57831324868127221 1.0000000180025095e-35 0.4519312359220185 2.0494077325714916e-08 4.0442751429662231e-05 9.4099754174415534e-07 4.7444885963862585e-05 2.6313525561133082e-06 6.726331296902809e-05 7.0625215993919406e-06 0.0095036391501297519 8.1915109579453683e-05 1.0830807371630446e-05
decision_type=2 2 2 2 2 2 2 2 2 2 2 2 2 2 2 2 2 2 2 2 2 2 2 2 2 2 2 2 2 2
left_child=-1 2 -2 -3 17 6 -6 8 -7 10 -9 12 -11 -13 15 -15 -16 -5 19 20 -18 -20 -23 -24 -25 27 -27 -26 -28 -30
right_child=1 3 -4 4 5 7 -8 9 -10 11 -12 13 -14 14 16 -17 18 -19 21 -21 -22 22 23 24 25 26 28 -29 29 -31
leaf_value=-5.4526773953794496 5.6475352603920248 -5.4527106803392078 5.6473010201103184 -5.4526439742800008 -5.4537243594565998 -5.451913605179536 -5.4526773658818675 -5.4537174741292977 -5.4526773656912173 -5.4525581353894035 -5.4526773656912173 -5.4527106798826734 -5.4526773656912173 -5.4517120600578872 -5.4527106799338361 -5.4526773656912173 -5.4524164874427514 -5.4526773656912173 -5.4526909780719164 -5.4526773656912164 -5.452677365691188 -5.452663875487084 -5.4526909863542334 -5.4522918556788085 -5.4529060028266807 -5.4523835740954052 -5.4526903951948356 -5.4526773625503271 -5.4523120163971317 -5.4526769357534288
leaf_weight=4.981981378974023 0.0033945919967667262 0.031533632427453884 0.028136943092249567 0.0314611400317516 0.0010033737335318751 0.0013754728715865685 0.03053119746707722 0.0010100214801268539 0.030153111787512898 0.0088109469506888471 0.030524329928354632 0.031534064561128505 0.022717801621183753 0.0010882893748201941 0.031534016132354625 0.030440906231888221 0.0016454866561675932 0.031599739675584715 0.031535385779283831 0.019340657176655895 0.0016171503594932801 0.03183479930569344 0.031529885198841145 0.0011139994485932494 0.0018787458675698634 0.0013984627118953643 0.031532789263346461 0.029651543824002147 0.0011245583294207098 1.486965690425025
leaf_count=1521840 142 1128874 1177 1384 21704 32 662388 9767 700 187 296020 64897 482 1550 65176 43262 36 39 179487 83 12 557 246664 396 8984 622 204 141718 501 989450
internal_value=-5.40268 -5.27924 5.64733 -5.45268 -5.45268 -5.45268 -5.45271 -5.45268 -5.45264 -5.45268 -5.45271 -5.45268 -5.45264 -5.45268 -5.45268 -5.45264 -5.45268 -5.45266 -5.45268 -5.45266 -5.45255 -5.45268 -5.45268 -5.45268 -5.45268 -5.45268 -5.45268 -5.45269 -5.45268 -5.45268
internal_weight=0 2.01802 0.0315315 1.98649 1.95495 1.89189 0.0315346 1.86036 0.0315286 1.82883 0.0315344 1.7973 0.0315287 1.76577 1.73423 0.0315292 1.7027 0.0630609 1.67117 0.0226033 0.00326264 1.64857 1.61703 1.5852 1.55367 1.55255 1.52102 0.0315303 1.51962 1.48809
internal_count=5388335 3866495 1319 3865176 2736302 2734879 684092 2050787 732 2050055 305787 1744268 669 1743599 1678702 44812 1633890 1423 1568714 131 48 1568583 1389096 1388539 1141875 1141479 990777 150702 990155 989951
is_linear=0
shrinkage=1


Tree=5
num_leaves=31
num_cat=0
split_feature=15 15 10 2 1 2 1 2 14 2 2 1 2 10 2 10 2 9 10 2 19 10 2 10 2 10 2 10 2 1
split_gain=52.7693 1494.23 2.10953e-07 1.11461e-07 2.22237e-08 2.85695e-08 2.89421e-08 2.86822e-08 3.16374e-09 1.73374e-07 3.23323e-08 2.8082e-08 2.07938e-08 2.73719e-08 2.3213e-08 2.8748e-08 9.00815e-09 2.20864e-08 8.63919e-09 1.70097e-08 2.13809e-08 1.82566e-08 2.94783e-08 1.42975e-08 2.50953e-08 1.97573e-08 2.1645e-08 2.53968e-08 2.44196e-08 2.47723e-08
threshold=0.0050215662817730015 0.0051903263161485009 0.48199984636297039 2.9847144916371442e-05 0.34582529649587818 4.4927807610959125e-05 0.43997777038716462 6.0636831251154613e-05 0.63994324228449817 8.7656351912290882e-05 0.00090798156640325013 0.4765084866300851 0.00012661473053990002 0.03290560443174801 0.00014200957370730003 0.051676081863218502 0.00017688360618855003 0.0010322381625606002 0.074614428469838165 0.00021332854103380002 0.00015898544592175002 0.099914831306821009 0.00028119152315945003 0.11038052111791886 0.00033900073015540006 0.11071649210353536 0.00039932338093375002 0.11869952456421511 0.00043953848145260002 0.53175108582797315
decision_type=2 2 2 2 2 2 2 2 2 2 2 2 2 2 2 2 2 2 2 2 2 2 2 2 2 2 2 2 2 2
left_child=-1 2 -2 -3 -5 -6 -7 -8 10 -10 -9 -11 -13 -14 -15 -16 17 -17 -18 20 -20 -21 -23 -24 -25 -26 -27 -28 -29 -30
right_child=1 3 -4 4 5 6 7 8 9 11 -12 12 13 14 15 16 18 -19 19 21 -22 22 23 24 25 26 27 28 29 -31
leaf_value=-5.4526773390445271 5.6467524459367366 -5.4523000037273865 5.647350294495781 -5.4528846272235221 -5.4524144325073278 -5.4529468253697413 -5.4524133939650588 -5.4527987939648304 -5.4520905167815155 -5.4529382439625209 -5.4526773703997762 -5.4524871266916017 -5.4528996962915066 -5.4524918396186326 -5.4529107983344716 -5.4524283075732409 -5.4527486700592123 -5.4526773684180831 -5.4523694950983161 -5.4528261207310686 -5.4526773695827782 -5.4524415404547275 -5.4527942307226827 -5.4524768712278977 -5.452838226702533 -5.4525046771649714 -5.4528836726492678 -5.4524823339499422 -5.4529078347254938 -5.4526780514401523
leaf_weight=6.180181593034785 0.0015518935106227918 0.0019519222837516273 0.029979626677231863 0.0013030179334627681 0.001027091452517225 0.0010022439145522801 0.001023056145374567 0.006065842399294751 0.0012563392749314053 0.0010382539909485891 0.056999329477548599 0.0014237266067240731 0.0013946039879435537 0.00167120020761402 0.0013282775455643039 0.001244900586574004 0.004348653688918346 0.0031234828866217867 0.0010071022296536105 0.0020860077471631646 0.0012814833335141884 0.0013157602501117074 0.0026552434343436451 0.0015476683632762436 0.0019290640535807304 0.0017968576233791103 0.0015041086763964975 0.0015910326154546786 0.001174938348420084 0.68419576000803062
leaf_count=2672273 292 9991 5641 4509 5320 3235 4882 775 8694 4751 7595 10099 6487 4447 6537 176 19437 8981 8471 3839 1073 10340 26092 9238 7213 9481 6039 9995 5538 2506894
internal_value=-5.40268 -5.02575 5.64732 -5.45268 -5.45268 -5.45268 -5.45268 -5.45268 -5.45268 -5.45268 -5.45269 -5.45268 -5.45268 -5.45268 -5.45268 -5.45268 -5.45268 -5.45261 -5.45268 -5.45268 -5.45254 -5.45268 -5.45268 -5.45268 -5.45268 -5.45268 -5.45268 -5.45268 -5.45268 -5.45268
internal_weight=0 0.819818 0.0315315 0.788287 0.786335 0.785032 0.784005 0.783003 0.78198 0.718914 0.0630652 0.717658 0.71662 0.715196 0.713802 0.71213 0.710802 0.00436838 0.706434 0.702085 0.00228859 0.699796 0.69771 0.696395 0.693739 0.692192 0.690263 0.688466 0.686962 0.685371
internal_count=5388335 2716062 5933 2710129 2700138 2695629 2690309 2687074 2682192 2673822 8370 2665128 2660377 2650278 2643791 2639344 2632807 9157 2623650 2604213 9544 2594669 2590830 2580490 2554398 2545160 2537947 2528466 2522427 2512432
is_linear=0
shrinkage=1


Tree=6
num_leaves=31
num_cat=0
split_feature=14 14 17 14 8 10 1 2 14 1 14 2 0 14 1 0 4 14 0 19 14 0 14 17 1 7 14 0 19 2
split_gain=28.3178 741.668 777.014 7.02731e-08 5.15209e-08 8.41034e-09 8.9965e-09 6.18479e-09 2.87473e-09 8.38712e-08 1.46222e-09 2.55766e-09 8.72157e-08 4.1007e-09 2.44236e-09 1.26312e-07 2.42996e-09 1.47036e-09 7.78818e-08 4.94513e-09 2.90076e-09 8.63944e-08 3.47553e-09 6.94873e-09 6.23092e-09 1.17535e-07 2.91206e-09 6.60219e-08 4.94005e-09 1.22508e-07
threshold=0.73731819794253295 0.74068818730046126 0.00028359255374395004 1.0000000180025095e-35 1.4956317274895266e-08 1.0000000180025095e-35 0.4765084866300851 0.00025982725100880008 0.73660872649875853 0.93711481479856007 0.0028378857750975006 1.0000000180025095e-35 0.29008255470291783 0.0054984036892514509 0.2816852174616078 0.22578942723430684 0.00024442721595890004 0.73341610500177379 0.24888034455122199 1.0000000180025095e-35 0.73057821922667621 0.29658129255558935 0.034586732884001409 0.00021040644620550002 0.29599749729135511 2.1992619276970653e-06 0.72844980489535305 0.29658129255558935 5.7776126760597889e-06 0.0091753265277653515
decision_type=2 2 2 2 2 2 2 2 2 2 2 2 2 2 2 2 2 2 2 2 2 2 2 2 2 2 2 2 2 2
left_child=3 2 4 -1 -2 6 -3 -4 10 -10 16 12 -12 -13 15 -15 -5 19 -19 -16 22 -22 23 -21 25 -24 28 -28 29 -26
right_child=1 5 7 8 -6 -7 -8 -9 9 -11 11 13 -14 14 17 -17 -18 18 -20 20 21 -23 24 -25 26 -27 27 -29 -30 -31
leaf_value=-5.4526026230643971 -5.4528037685930473 -5.452879326009465 5.6474253941264312 -5.4526570966113894 -5.4526759434041878 -5.4526772289610097 -5.4526773919677769 5.6473128744155385 -5.4531316552432916 -5.4526773889124414 -5.4530729269007594 -5.4526593965122903 -5.4526773919753015 -5.4532342837339467 -5.4526575411503115 -5.4526773904394279 -5.4526773919678195 -5.4530928506761489 -5.4526773927200614 -5.4526486467889352 -5.453145205864951 -5.4526773888198727 -5.4532131774770791 -5.4526773949214435 -5.4521681199138587 -5.4526773948374867 -5.4530385298216411 -5.4526773919678186 -5.4526774014729709 -5.4526773950412704
leaf_weight=0.031531233952271864 0.015748084522783645 0.0010663264015277054 0.0012725728156510732 0.023522422648966201 0.015783890150487423 1.3221157025870978 0.0011425527834632021 0.030258980899816379 0.0010511285189521704 0.030481423574315158 0.001434812609549029 0.031531613077632303 0.048622433665254761 0.0010380445636711802 0.031532632924409998 0.053317956725095428 0.039539537392556667 0.0011489695028784599 0.06190313425270233 0.031528528423393598 0.00101989160270921 0.030509622837143979 0.0010780020633552869 0.063063047826290131 0.0012287501211537535 0.020283759615267627 0.00132089011890446 0.030211638080800185 5.0454101809109488 0.030302175838073708
leaf_count=204 29090 43 72 94 29157 2044837 38 1712 1277 37069 14 556 598 132 1128869 7804 43 96 22671 22 669 20033 16 690 34609 949 27 618 1172963 853363
internal_value=-5.40268 -5.20041 0.0972518 -5.45268 -5.45274 -5.45268 -5.45277 5.64732 -5.45268 -5.45269 -5.45268 -5.45268 -5.45269 -5.45268 -5.45268 -5.45269 -5.45267 -5.45268 -5.45268 -5.45268 -5.45268 -5.45269 -5.45268 -5.45267 -5.45268 -5.4527 -5.45268 -5.45269 -5.45268 -5.45266
internal_weight=0 1.38739 0.0630635 5.61261 0.031532 1.32432 0.00220888 0.0315316 5.58108 0.0315326 5.54955 5.48649 0.0500572 5.43643 5.4049 0.054356 0.063062 5.35054 0.0630521 5.28749 5.25596 0.0315295 5.22443 0.0945916 5.12984 0.0213618 5.10847 0.0315325 5.07694 0.0315309
internal_count=5388335 2104949 60031 3283386 58247 2044918 81 1784 3283182 38346 3244836 3244699 612 3244087 3243531 7936 137 3235595 22767 3212828 2083959 20702 2063257 712 2062545 965 2061580 645 2060935 887972
is_linear=0
shrinkage=1


Tree=7
num_leaves=31
num_cat=0
split_feature=15 15 7 17 6 1 17 1 17 1 2 17 9 2 17 2 1 17 2 9 17 9 2 17 2 2 19 16 2 1
split_gain=55.1605 1491.85 8.39924e-07 3.11983e-08 9.10744e-07 8.94788e-07 4.02741e-08 1.11648e-06 4.03391e-08 1.14486e-06 9.26181e-07 4.64663e-08 9.94981e-07 8.43024e-07 4.69592e-08 1.28539e-06 1.19717e-06 4.67399e-08 1.33673e-06 1.31839e-06 4.68478e-08 1.36154e-06 8.93055e-07 4.79631e-08 1.22144e-06 6.16415e-07 7.86739e-07 4.8157e-08 1.03423e-06 1.81312e-07
threshold=0.0051903263161485009 0.0054996833319832508 6.6920398657067837e-05 1.0594002414695467e-10 0.054450250901270605 0.34582529649587818 7.8635494804255803e-09 0.43997777038716462 1.2006581627358698e-08 0.75650481421760951 2.9847144916371442e-05 6.5047486736926131e-08 2.6422637091188035e-05 6.0636831251154613e-05 1.7829783229569782e-07 8.7656351912290882e-05 0.70290159720643086 2.0041232213139944e-07 0.00012661473053990002 2.8504035291676828e-05 2.2293021680651398e-07 2.8504035291676828e-05 0.00014200957370730003 5.4918380330370163e-07 0.0005501300078796001 0.00017688360618855003 0.0016587515650998504 0.0026926478207480006 0.00021332854103380002 0.77947622412323458
decision_type=2 2 2 2 2 2 2 2 2 2 2 2 2 2 2 2 2 2 2 2 2 2 2 2 2 2 2 2 2 2
left_child=-1 2 -2 4 -3 -5 -7 -8 9 -9 -10 12 -12 -13 16 -16 -15 19 -19 -17 21 -20 -22 24 -24 26 -25 29 -29 -27
right_child=1 3 -4 5 -6 6 7 8 10 -11 11 13 -14 14 15 17 -18 18 20 -21 22 -23 23 25 -26 27 -28 28 -30 -31
leaf_value=-5.4526775235416345 5.6487634639275068 -5.4542091490625966 5.6473331225938939 -5.4513987632350807 -5.4526773493514957 -5.4527329109427223 -5.4510823260158743 -5.4543665336670433 -5.4514463514561147 -5.4526773493992131 -5.4540576277606538 -5.4515577572246112 -5.4526773493514957 -5.4543248583049806 -5.450971876879688 -5.4544843830462124 -5.4526773497376517 -5.4509036432925821 -5.4545416727652078 -5.4526773493514957 -5.4514915214150514 -5.4526773493514957 -5.4543572479038742 -5.4508143580413106 -5.4526773462171283 -5.4529886067131237 -5.4526773493514584 -5.4512601912844607 -5.4526781026528779 -5.452677347324177
leaf_weight=6.2117132336266927 0.0010621412803856192 0.0010022146634582887 0.030469323028114559 0.0013703076930653415 0.030528482235240517 0.031533589172994425 0.0010984344948781191 0.0010372030929772782 0.0015302271102655132 0.030496292214820642 0.0013647316467313422 0.001684200937802415 0.030150978130222938 0.0011445188259813213 0.0011061013348125917 0.0010439352130333637 0.030147249258334341 0.0010634980714030453 0.001011804093934642 0.030487679896396003 0.0015907283042793088 0.03051025206588065 0.0011229383252953076 0.0010119999327571341 0.02971325232192612 0.0058754444174127221 0.0012878678971901536 0.0012896260065673451 0.46358263833991487 0.022969316510170756
leaf_count=2678206 715 388 20510 4847 11809 58247 3778 922 9016 27160 1266 9860 28021 283 8596 1641 7470 10112 1228 48017 4593 37104 969 8697 25688 830 182 10214 2364720 3246
internal_value=-5.40268 -5.00868 5.64738 -5.45268 -5.45273 -5.45268 -5.45268 -5.45268 -5.45268 -5.45273 -5.45268 -5.45268 -5.45274 -5.45267 -5.45268 -5.45267 -5.45274 -5.45268 -5.45267 -5.45274 -5.45268 -5.45274 -5.45267 -5.45268 -5.45274 -5.45267 -5.45186 -5.45268 -5.45267 -5.45274
internal_weight=0 0.788287 0.0315315 0.756756 0.0315307 0.725225 0.723855 0.692321 0.691222 0.0315335 0.659689 0.658159 0.0315157 0.626643 0.624959 0.593667 0.0312918 0.592561 0.561029 0.0315316 0.559966 0.0315221 0.528444 0.526853 0.0308362 0.496017 0.00229987 0.493717 0.464872 0.0288448
internal_count=5388335 2710129 21225 2688904 12197 2676707 2671860 2613613 2609835 28082 2581753 2572737 29287 2543450 2533590 2525837 7753 2517241 2467583 49658 2457471 38332 2419139 2414546 26657 2387889 8879 2379010 2374934 4076
is_linear=0
shrinkage=1


Tree=8
num_leaves=31
num_cat=0
split_feature=0 12 19 10 0 12 10 0 12 10 19 14 10 1 19 7 15 1 7 10 7 0 2 2 0 7 19 14 7 14
split_gain=94.1444 675.844 777.008 3.32629e-09 1.45448e-08 5.61363e-10 2.46069e-09 1.44728e-08 9.7217e-10 4.05789e-09 1.27274e-08 6.02964e-10 9.03326e-09 6.42083e-10 1.55439e-08 7.35157e-09 8.1662e-09 1.83895e-09 6.05373e-09 6.92879e-09 2.64429e-09 4.56444e-10 1.27124e-08 7.71911e-09 2.14506e-09 1.02969e-08 9.03934e-09 4.43568e-10 1.16968e-08 3.68117e-09
threshold=0.62433803243801311 1.2609933211328167e-12 0.014229501276903001 1.0000000180025095e-35 0.64182668454008251 2.706160776114255e-12 0.0066321773552047011 0.64182668454008251 1.1714012801014127e-11 0.014638187920740451 0.055922727686840958 0.11440227030862002 0.022828872614305554 0.67413864124507283 0.013671237028088302 1.5709013769264751e-06 0.00020982015010640004 0.68400858967467493 2.1992619276970653e-06 0.11071649210353536 3.4559830292382452e-06 0.62692602723085156 4.4927807610959125e-05 2.9847144916371442e-05 0.62787059004221002 3.8644173872391289e-05 0.0051948760304991008 0.16566158212131957 5.2468105989344274e-05 0.19811990067399785
decision_type=2 2 2 2 2 2 2 2 2 2 2 2 2 2 2 2 2 2 2 2 2 2 2 2 2 2 2 2 2 2
left_child=-1 2 -2 4 -3 -5 7 -7 -8 10 -10 -11 -13 14 -14 16 -15 -17 -19 -20 -21 22 -22 -23 26 -26 -25 -27 -29 -30
right_child=1 3 -4 5 -6 6 8 -9 9 11 -12 12 13 15 -16 17 -18 18 19 20 21 23 -24 24 25 27 -28 28 29 -31
leaf_value=-5.4526773859477426 -5.4526725905222673 -5.4528817691999212 5.6473042108094109 -5.4526704390009799 -5.4526773984123658 -5.4528709706787373 -5.452665674240702 -5.452677399950578 -5.4528692334501159 -5.4526698625984658 -5.4526773999505718 -5.4527803816041249 -5.4524916508877874 -5.4528693543561202 -5.4526773999505833 -5.4526538867343417 -5.4526773999505425 -5.4527518373295996 -5.4525904190211012 -5.4527095842603295 -5.4525128206805578 -5.4527780159160777 -5.4526773999264133 -5.452529676047611 -5.452804685990194 -5.4526710049545697 -5.4526773999505762 -5.4528221311245773 -5.4526305209381531 -5.4526773994647657
leaf_weight=6.5155442644451895 0.031532393157505001 0.0010669568655643493 0.03153156116604805 0.031324159804682949 0.0047301492285285462 0.0011264404479618406 0.018595555687056731 0.006764157949788796 0.0011366424088237173 0.028903954256996656 0.003612987813539803 0.0021155154661087741 0.0011770854886847806 0.0010491259149247858 0.026095363340573385 0.0085647451690959997 0.001174184444465709 0.0027055024934057306 0.0023084940106770082 0.0062393165629472938 0.0012209093168138443 0.0018913051332702926 0.030102971332780726 0.0012882204251383192 0.0015781098001497176 0.031374697931024542 0.0052799270488321781 0.0013862991560280582 0.0042799686692625008 0.19429893110578078
leaf_count=4162880 311 52 88 151 136 175 23 418 2322 11 2 639 3300 14 130 283 180 22 1067 44 130 1039 2266 3566 468 200 107 190 177 1207944
internal_value=-5.40268 -4.73022 0.0972426 -5.45268 -5.45272 -5.45268 -5.45268 -5.45271 -5.45268 -5.45268 -5.45272 -5.45268 -5.45268 -5.45268 -5.45267 -5.45268 -5.45277 -5.45268 -5.45268 -5.45268 -5.45268 -5.45268 -5.45267 -5.45268 -5.45268 -5.45268 -5.45265 -5.45268 -5.45268 -5.45268
internal_weight=0 0.484456 0.063064 0.421392 0.00579711 0.415595 0.38427 0.0078906 0.37638 0.357784 0.00474963 0.353035 0.324131 0.322015 0.0272724 0.294743 0.00222331 0.292519 0.283955 0.281249 0.278941 0.272701 0.0313239 0.241377 0.239486 0.232918 0.00656815 0.23134 0.199965 0.198579
internal_count=5388335 1225455 399 1225056 188 1224868 1224717 593 1224124 1224101 2324 1221777 1221766 1221127 3430 1217697 194 1217503 1217220 1217198 1216131 1216087 2396 1213691 1212652 1208979 3673 1208511 1208311 1208121
is_linear=0
shrinkage=1


Tree=9
num_leaves=31
num_cat=0
split_feature=13 13 9 10 3 2 9 9 9 0 1 2 1 2 1 4 9 9 14 9 19 9 2 19 1 19 9 4 19 1
split_gain=251.999 1294.99 3.43745e-06 4.93723e-08 2.2579e-09 5.56493e-08 3.41886e-09 3.3489e-08 2.18961e-09 9.77441e-08 5.45242e-10 1.46406e-09 1.15597e-09 1.28534e-09 1.59207e-09 2.03727e-09 3.19574e-09 5.41817e-10 2.47589e-10 1.22848e-10 2.45582e-10 6.99994e-09 6.95297e-09 2.47641e-10 7.5443e-09 1.25984e-10 1.20306e-10 7.0091e-09 2.47641e-10 6.8678e-09
threshold=0.060262180097377958 0.065994171105011767 2.6422637091188035e-05 0.27343354800347786 3.0551785291229262e-11 0.00033900073015540006 1.4090957783894903e-05 2.1973900919541068e-05 1.0000000180025095e-35 0.28872250646904979 0.3732723397798377 2.9847144916371442e-05 0.50441404837740766 7.3204050163311018e-05 0.55253690076967577 3.5629299063254283e-07 6.0944099576902657e-05 0.0010138230157739501 1.0000000180025095e-35 9.4099754174415534e-07 5.7776126760597889e-06 2.6313525561133082e-06 0.0072651092531175509 1.3954611472450867e-05 0.61143859950405866 1.3954611472450867e-05 3.940293131348183e-06 9.005129979498114e-05 3.5613008812836006e-05 0.58875561733519854
decision_type=2 2 2 2 2 2 2 2 2 2 2 2 2 2 2 2 2 2 2 2 2 2 2 2 2 2 2 2 2 2
left_child=8 2 -2 -3 5 -5 -6 -8 9 -1 17 -12 -13 -14 -15 -16 -17 -4 -10 25 22 -22 -21 24 -23 -20 27 -25 29 -28
right_child=1 3 10 4 6 -7 7 -9 18 -11 11 12 13 14 15 16 -18 -19 19 20 21 23 -24 26 -26 -27 28 -29 -30 -31
leaf_value=-5.4522118346287041 5.6443620500303169 -5.4523760662567398 5.6472738863540979 -5.4530368208996967 -5.4526630195522756 -5.4526774119252854 -5.4528669175262818 -5.4526774070029784 -5.4526818345091552 -5.4526774076908824 5.6473813236111212 5.6472853037270863 5.6473750142486505 5.6472759085635449 5.6473722829747341 5.6472461832200036 5.6473266694347934 5.6473216688371402 -5.4526729437095911 -5.4528063196541057 -5.4525520376643435 -5.4528169437859351 -5.4526774079541367 -5.4525500588955831 -5.4526774078588112 -5.4526774079541367 -5.4528048255920565 -5.4526774138248033 -5.452677393232257 -5.452677407762895
leaf_weight=0.0011527554959264155 0.0010128270541825959 0.0013476483466519076 0.0010876950645979369 0.0011288566045664075 0.031426538466249099 0.023452221205388923 0.0023880304419634504 0.097914391556130909 0.031534259061132164 0.051131042187268605 0.001101162119084619 0.0019386016319913315 0.0012397709733704678 0.001682559740402211 0.0021773038524770518 0.0013206344783611703 0.018665969035282615 0.0013052309313934529 0.031268030066485042 0.0010828648870101478 0.0011134532251267917 0.0010004373930633239 0.030712955852834511 0.0010990774814095819 0.03053082650559702 0.031954220981091908 0.0010956086411261215 0.063456018178840168 6.5032421959094648 0.03043665281532526
leaf_count=20 526 692 565 234 245846 4862 1732 22881 204 668 572 1007 644 874 1131 686 9696 678 1119382 32527 405 21675 864932 15 662380 566 10424 130334 1957011 295166
internal_value=-5.40268 -3.60268 5.64723 -5.45268 -5.45268 -5.45269 -5.45268 -5.45268 -5.45268 -5.45267 5.64732 5.64732 5.64732 5.64733 5.64732 5.64733 5.64732 5.6473 -5.45268 -5.45268 -5.45268 -5.45268 -5.45268 -5.45268 -5.45268 -5.45268 -5.45268 -5.45268 -5.45268 -5.45268
internal_weight=0 0.189189 0.0315318 0.157658 0.15631 0.0245811 0.131729 0.100302 6.81081 0.0522838 0.0305189 0.028126 0.0270248 0.0250862 0.0238465 0.0221639 0.0199866 0.00239293 6.75853 6.72699 6.66377 6.63197 0.0317958 6.63086 0.0315313 0.0632223 6.59933 0.0645551 6.53477 0.0315323
internal_count=5388335 292626 16379 276247 275555 5096 270459 24613 5095709 688 15853 14610 14038 13031 12387 11513 10382 1243 5095021 5094817 3974869 3077410 897459 3077005 684055 1119948 2392950 130349 2262601 305590
is_linear=0
shrinkage=1


Tree=10
num_leaves=31
num_cat=0
split_feature=16 16 12 2 6 10 16 4 6 3 2 0 14 12 2 12 2 1 12 1 2 1 12 7 19 14 2 9 19 2
split_gain=96.5994 673.4 777.007 9.68345e-08 3.47618e-09 1.02509e-07 3.06582e-09 1.00852e-07 2.3403e-08 6.26303e-08 1.51593e-09 6.48626e-08 2.05989e-09 1.47995e-09 3.31401e-08 3.26015e-09 7.53847e-08 1.77718e-08 2.99683e-08 4.91991e-09 6.84553e-09 2.10695e-08 2.78059e-08 1.08115e-09 5.7823e-08 1.88135e-09 5.5589e-09 9.07264e-10 1.14778e-09 3.315e-08
threshold=1.2407292487977501e-05 4.9641533970333495e-06 3.8131455372115778e-07 1.0000000180025095e-35 0.0032466520524035004 0.22001893828504651 3.0464941395492331e-06 0.00039233113116520006 0.01526705661122245 3.0551785291229262e-11 1.0000000180025095e-35 0.28872250646904979 1.0000000180025095e-35 7.0392902154738146e-07 0.0030792828139510502 1.7062667150822769e-05 0.005104175961172251 0.75650481421760951 0.0015191204316677002 0.76036562658619344 0.023218565301154504 0.89350119117231508 0.0015191204316677002 1.0000000180025095e-35 0.00015898544592175002 0.0028378857750975006 7.3204050163311018e-05 9.4099754174415534e-07 5.7776126760597889e-06 0.0072651092531175509
decision_type=2 2 2 2 2 2 2 2 2 2 2 2 2 2 2 2 2 2 2 2 2 2 2 2 2 2 2 2 2 2
left_child=1 3 -3 -1 -5 -6 7 -7 -9 -10 11 -2 -12 -11 -15 16 -16 18 -17 -19 -21 22 -22 24 -14 26 -25 -27 29 -29
right_child=10 2 -4 4 5 6 -8 8 9 13 12 -13 23 14 15 17 -18 19 -20 20 21 -23 -24 25 -26 27 -28 28 -30 -31
leaf_value=-5.4522585874218716 -5.4530566840973149 -5.4526959176550234 5.6473500643521346 -5.4526949273266947 -5.4521772374192246 -5.4522012018533257 -5.4526932394637102 -5.4527932074850209 -5.4523869196690233 -5.452685884807825 -5.4526645704816881 -5.452677386967812 -5.4530586483927364 -5.4525247399621879 -5.4530463363665342 -5.4524469230890897 -5.4526773866459752 -5.4527035713390273 -5.4526773866459646 -5.4526482096578164 -5.4529080603670748 -5.452677386645977 -5.4526773866459601 -5.45262915501345 -5.4526773866459761 -5.4526833396017667 -5.4526773866459752 -5.4523946943872534 -5.4526773696329851 -5.452677389488799
leaf_weight=0.0013762739078159161 0.0011532690909702428 0.031531568616628647 0.031531501561403275 0.030526518285341808 0.001021712452711653 0.0011085478652148586 0.033251412212848663 0.0044184945936649447 0.0018456731797868988 0.063063148706532957 0.031531016365079156 0.049736844744096231 0.0010128813310074083 0.0035099524468478185 0.0014521832415539384 0.0022257658831676954 0.029699089944188017 0.019590547541156411 0.0038514148909598589 0.01836837778591871 0.002324086381122469 0.189296034805011 0.0029835042078047991 0.0080076006843795566 0.054726127373214695 0.063255986697150379 0.023523513227701187 0.0010732579098869923 6.262290713691371 0.030712953681018007
leaf_count=2 20 12 145 191 284 163 31 38 20 23 204 670 4483 60 42 861 859 48 58 6845 899 3691 51 32 3228 1119952 94 32258 3348139 864932
internal_value=-5.40268 -4.71268 0.0973212 -5.45268 -5.45268 -5.45268 -5.45268 -5.45268 -5.45268 -5.45268 -5.45268 -5.45269 -5.45268 -5.45268 -5.45268 -5.45268 -5.45269 -5.45268 -5.45259 -5.45268 -5.45268 -5.45268 -5.45278 -5.45268 -5.45268 -5.45268 -5.45267 -5.45268 -5.45268 -5.45267
internal_weight=0 0.472976 0.0630631 0.409913 0.408536 0.37801 0.376988 0.343737 0.342628 0.33821 6.52702 0.0508901 6.47613 0.336364 0.273301 0.269791 0.0311513 0.23864 0.00607718 0.232563 0.212972 0.194604 0.00530759 6.4446 0.055739 6.38886 0.0315311 6.35733 6.29408 0.0317862
internal_count=5388335 14323 157 14166 14164 13973 13689 13658 13495 13457 5374012 690 5373322 13437 13414 13354 901 12453 919 11534 11486 4641 950 5373118 7711 5365407 126 5365281 4245329 897190
is_linear=0
shrinkage=1


Tree=11
num_leaves=31
num_cat=0
split_feature=15 19 2 10 19 2 2 19 0 1 4 1 6 4 4 1 4 10 4 4 2 4 4 2 4 2 4 2 0 4
split_gain=252.001 1295 7.39547e-08 4.7785e-08 4.10716e-08 1.05242e-06 8.92972e-07 4.16903e-08 7.51192e-07 5.99462e-07 2.30307e-08 1.23626e-07 2.66263e-08 2.31033e-08 5.3277e-08 2.01274e-07 9.78393e-09 6.03774e-08 3.66407e-08 5.63472e-08 1.90943e-07 3.62213e-08 5.82702e-08 2.10254e-07 2.76091e-08 5.84284e-08 3.39371e-08 6.06929e-08 4.25606e-08 6.69068e-08
threshold=0.034683399924902159 0.00067172630808440021 0.0072651092531175509 0.051676081863218502 5.7776126760597889e-06 7.3204050163311018e-05 0.0091753265277653515 8.7662163588984402e-05 0.24134014463137718 0.44417118308603204 0.038626909696329308 0.63041972080127284 0.64737722460598646 0.014181687841784802 0.00061597525620665013 0.74159323515388664 0.00024156057345825003 0.40225454321180887 8.8742659602253985e-07 4.030482591945283e-07 0.00043953848145260002 1.4007373540098352e-07 9.2951738309303861e-08 0.0008636821197379001 6.1052431576298425e-08 0.0013918194945213003 4.534231137039246e-08 0.0020022721531792504 0.33557827202978491 5.8967675937194816e-09
decision_type=2 2 2 2 2 2 2 2 2 2 2 2 2 2 2 2 2 2 2 2 2 2 2 2 2 2 2 2 2 2
left_child=-1 3 -3 -2 6 -6 -5 8 -7 -9 11 -10 -12 14 15 -13 17 -17 19 20 -19 22 23 -22 25 -25 27 -27 -29 -30
right_child=1 2 -4 4 5 7 -8 9 10 -11 12 13 -14 -15 -16 16 -18 18 -20 -21 21 -23 -24 24 -26 26 -28 28 29 -31
leaf_value=-5.4526772751976971 -5.4530194329835062 5.6477458754748842 5.6473111593626388 -5.4513007189465972 -5.4542839432657146 -5.451339177498145 -5.4526773336021668 -5.4538496762934647 -5.4532246854196558 -5.4526773328425318 -5.4523274767383016 -5.4533735513262158 -5.4526773336021259 -5.4524993574381044 -5.452325979869693 -5.4530532762298645 -5.4525929146715404 -5.4533613621166861 -5.4524048948175325 -5.4523167557192496 -5.453391386253398 -5.4524077519204468 -5.4523171561784709 -5.4530290970992974 -5.4524582982306411 -5.453025998316126 -5.4524039372591799 -5.4523182566749 -5.4527923317676574 -5.4523411469708032
leaf_weight=6.8108120343694942 0.001012428415965049 0.0010107484122272572 0.030520738248014823 0.001225670465810679 0.0010241106883519526 0.0010968931834547382 0.03030217225943943 0.0011035021889540522 0.0010173552184227211 0.09195085645953327 0.0010136430891947148 0.0010349813650876163 0.001173377643990392 0.0019930699299735002 0.0010396147862010699 0.0010050278344557731 0.0043266958767027566 0.0010181854720165981 0.0013537282620283966 0.0010227382579088831 0.0010330470682404789 0.0013679715462942008 0.0010238885086231173 0.0010512873784485066 0.0016836603093786104 0.0010576956787673453 0.0013488884209635899 0.001004971624201545 0.0032743855990453596 0.0010969450198246022
leaf_count=3565002 5996 391 11806 34529 10072 23798 853363 3282 22071 230499 21992 22454 25457 43241 22555 21805 93869 22070 29380 22199 22392 29689 22224 22798 36538 22937 29275 21802 71040 23809
internal_value=-5.40268 -3.60267 5.64733 -5.45268 -5.45267 -5.45269 -5.45262 -5.45267 -5.45262 -5.45269 -5.45267 -5.45268 -5.45252 -5.45266 -5.45268 -5.45269 -5.45266 -5.45268 -5.45265 -5.45268 -5.4527 -5.45265 -5.45268 -5.45271 -5.45264 -5.45268 -5.45263 -5.45268 -5.45261 -5.45268
internal_weight=0 0.189188 0.0315315 0.157657 0.156644 0.125117 0.0315278 0.124092 0.0310381 0.0930544 0.0299412 0.0277541 0.00218702 0.0267368 0.0247437 0.0237041 0.0226691 0.0183424 0.0173374 0.0159837 0.0149609 0.0139427 0.0125748 0.0115509 0.0105178 0.00883417 0.00778289 0.006434 0.0053763 0.00437133
internal_count=5388335 1823333 12197 1811136 1805140 917248 887892 907176 673395 233781 649597 602148 47449 580077 536836 514281 491827 397958 376153 346773 324574 302504 272815 250591 228199 191661 168863 139588 116651 94849
is_linear=0
shrinkage=1


Tree=12
num_leaves=31
num_cat=0
split_feature=14 14 9 13 0 13 0 13 7 7 14 1 13 14 13 13 1 9 13 9 9 9 0 19 9 14 14 9 1 9
split_gain=30 1517 4.09326e-08 1.1872e-08 1.50311e-08 1.13814e-08 3.49067e-08 1.13748e-08 4.86152e-08 2.28664e-08 1.14793e-08 2.20724e-08 1.13835e-08 1.73806e-08 1.12207e-08 1.19495e-08 1.45612e-07 4.18697e-08 1.13198e-08 1.1816e-08 7.48522e-08 6.332e-11 2.40619e-09 9.13962e-11 1.35621e-10 2.19826e-09 9.04006e-11 1.85645e-09 4.84244e-11 3.4303e-09
threshold=0.21266406527137277 0.20929407591344448 1.0000000180025095e-35 0.0026221415638648005 0.10105671608347495 6.1144008150458169e-05 0.21447700350521037 3.4286896627892846e-05 0.0013500326433305502 1.0000000180025095e-35 0.20681092586023411 0.3732723397798377 5.4707874062898535e-06 1.0000000180025095e-35 1.5415548709607282e-06 1.0555704495656894e-06 0.69802303200103355 9.4099754174415534e-07 2.2713553094389812e-07 1.9052381785495843e-05 4.9358163074379667e-05 1.0000000180025095e-35 0.28872250646904979 1.0000000180025095e-35 2.6313525561133082e-06 0.65484214260376028 0.21709826179496272 3.940293131348183e-06 0.2816852174616078 1.9052381785495843e-05
decision_type=2 2 2 2 2 2 2 2 2 2 2 2 2 2 2 2 2 2 2 2 2 2 2 2 2 2 2 2 2 2
left_child=1 2 -1 4 -4 6 -6 9 -9 -8 11 -11 13 -13 15 17 -17 -15 19 -19 -21 22 -2 -23 25 -25 -26 -28 29 -29
right_child=21 -3 3 -5 5 -7 7 8 -10 10 -12 12 -14 14 -16 16 -18 18 -20 20 -22 23 -24 24 26 -27 27 28 -30 -31
leaf_value=-5.4525570275989033 -5.452750596025477 5.6473190674107698 -5.4526353882767484 -5.4527090575569579 -5.4525865291048108 -5.4527076805622698 -5.452605244851612 -5.4528349159612057 -5.4526773864140958 -5.4526269162749372 -5.4527076805681975 -5.4526406281394664 -5.4527076805193238 -5.4526196682428925 -5.4527076805193238 -5.4530888174328993 -5.4526773898367047 -5.4526473244953371 -5.4527078319360127 -5.4528957763287451 -5.4526773880290209 -5.4526746889995863 -5.4526773881763084 -5.4527456159427299 -5.4526747032763145 -5.4526773882425275 -5.452732679724873 -5.4525865395919748 -5.4526773902645171 -5.4526773882376052
leaf_weight=0.0070240544019027898 0.001151715464665303 0.031531542539596447 0.021021038241712975 0.030160565511323401 0.01051053523099188 0.031531571061350294 0.010923700473824627 0.0060637645656241848 0.025467787869274616 0.021498730005418909 0.031531564891338237 0.031531152733918932 0.031531615764833876 0.031463827592687954 0.031531615764833876 0.0023214635439217082 0.029210153152234852 0.03175891206774395 0.031374788115499541 0.0039413387197555485 0.87239579784011312 0.031537150284861926 0.044121139630838968 0.0012531414525830389 0.031531477195652857 0.02039077891548402 0.0015177001827629813 0.0010538682381592271 5.4692381989417491 0.073879279345675286
leaf_count=10 20 444 14 22 7 65176 15 775 3255 15 22 204 22 556 12 96 1208 64906 200 1 4663 1128869 666 385 8063 570851 327 316 3527693 9522
internal_value=-5.40268 -5.18839 -5.45268 -5.45268 -5.45268 -5.45268 -5.45268 -5.45268 -5.45271 -5.45268 -5.45268 -5.45268 -5.45268 -5.45268 -5.45268 -5.45268 -5.45271 -5.45268 -5.45268 -5.45268 -5.45268 -5.45268 -5.45268 -5.45268 -5.45268 -5.45268 -5.45268 -5.45268 -5.45268 -5.45268
internal_weight=0 1.32433 1.29279 1.28577 1.25561 1.23459 1.20306 1.19255 0.0315316 1.16101 1.15009 1.11856 1.09706 1.06553 1.034 1.00247 0.0315316 0.970935 0.939471 0.908096 0.876337 5.67567 0.0452729 5.6304 5.59886 0.0216439 5.57722 5.54569 5.54417 0.0749331
internal_count=5388335 141623 141179 141169 141147 141133 75957 75950 4030 71920 71905 71883 71868 71846 71642 71630 1304 70326 69770 69570 4664 5246712 686 5246026 4117157 571236 3545921 3537858 3537531 9838
is_linear=0
shrinkage=1


Tree=13
num_leaves=31
num_cat=0
split_feature=1 1 17 12 19 10 15 16 9 17 16 9 17 7 5 10 7 8 10 7 8 10 3 7 10 1 7 3 19 7
split_gain=56.1237 308.372 452.789 729.716 9.18787e-08 1.11104e-07 2.56312e-08 1.99856e-08 3.42705e-09 3.37761e-09 9.08887e-07 1.62393e-07 6.40061e-07 3.21635e-09 1.8534e-08 2.03483e-09 1.03344e-08 1.27174e-08 8.59024e-09 1.97356e-08 7.19376e-09 1.91991e-09 2.22466e-08 1.95179e-08 2.20269e-08 7.72857e-09 1.06119e-09 1.82986e-08 8.9777e-09 6.5323e-10
threshold=0.4765084866300851 0.45103217164082127 0.0074748530296017508 1.5078328864188398e-08 0.005951161821843901 0.045310040480124651 5.1425804082032494e-05 1.2407292487977501e-05 4.599552653666582e-05 0.0074748530296017508 3.2256996771697778e-05 9.4099754174415534e-07 1.0594002414695467e-10 1.0000000180025095e-35 1.1946510705882355e-06 1.0000000180025095e-35 1.5709013769264751e-06 1.5325678262589922e-05 0.0066321773552047011 2.1992619276970653e-06 1.0000000180025095e-35 0.03290560443174801 3.7790007573880811e-08 3.4559830292382452e-06 0.051676081863218502 0.49127667109913364 1.0000000180025095e-35 1.0000000180025095e-35 8.7662163588984402e-05 1.5709013769264751e-06
decision_type=2 2 2 2 2 2 2 2 2 2 2 2 2 2 2 2 2 2 2 2 2 2 2 2 2 2 2 2 2 2
left_child=1 7 8 -4 5 -5 -7 -1 -3 11 -11 12 -2 14 -12 20 17 -17 -18 -20 -15 22 -21 -23 -25 -26 27 -9 -28 -30
right_child=9 2 3 4 -6 6 -8 26 -10 10 13 -13 -14 15 -16 16 18 -19 19 21 -22 23 -24 24 25 -27 28 -29 29 -31
leaf_value=-5.4528472298083015 -5.4534289141405994 -5.4526026801255876 5.6473230569421347 -5.4524685247573617 -5.4530401618386062 -5.4528047772200887 -5.4526773547149139 -5.452461211979533 -5.4526773556643988 -5.4518710331482136 -5.4528875036384248 -5.452677354589512 -5.4526773547149139 -5.452583516090602 -5.4526773547149103 -5.4529120742460275 -5.4525902089935645 -5.4526773541450941 -5.4528777018705972 -5.4524321226692054 -5.4526773547149121 -5.4528754981210366 -5.452677354714913 -5.452453832595519 -5.4528124062213266 -5.4526773554902785 -5.4527774225698051 -5.4526773550451697 -5.4526698797204816 -5.4526774513313239
leaf_weight=0.0017307753627749936 0.0035540963806751638 0.0015704365184934224 0.031531533160602976 0.0061418704044466912 0.001642360759433358 0.0053895273775026445 0.014740225950191643 0.0010368125219084581 0.070883506979498634 0.0035057356707851586 0.0012315768224142598 5.1985223176187532 0.013961214186451798 0.0026188966579425718 0.007084730239325765 0.0010462194053886256 0.0028264473617980448 0.0012869426899726477 0.0012294621837156674 0.001004434859666504 0.009277384170957248 0.0012431087129272092 0.011664883854791697 0.0011019641642171498 0.0010605323351882126 0.96152644147912625 0.0022374540065470674 0.017625046021866098 0.029926352293440317 0.59179789018265083
leaf_count=10 6 7 123 1034 65 3707 6662 60 1758 1 2447 1653772 110 230 40 943 1380 556 5360 8611 46 451 1555 7960 4515 3591589 9740 1953 523 83121
internal_value=-5.40268 -5.00179 -2.79914 0.435067 -5.45268 -5.45265 -5.45271 -5.45268 -5.45268 -5.45268 -5.45267 -5.45268 -5.45283 -5.45268 -5.45271 -5.45268 -5.45268 -5.45278 -5.45268 -5.45268 -5.45266 -5.45268 -5.45266 -5.45268 -5.45268 -5.45268 -5.45268 -5.45267 -5.45268 -5.45268
internal_weight=0 0.776254 0.131899 0.0594455 0.027914 0.0262716 0.0201298 0.644354 0.0724539 6.22375 1.00771 5.21604 0.0175153 1.0042 0.00831631 0.995887 0.98399 0.00233316 0.981657 0.978831 0.0118963 0.977601 0.0126693 0.964932 0.963689 0.962587 0.642624 0.0186619 0.623962 0.621724
internal_count=5388335 108763 13356 11591 11468 11403 10369 95407 1765 5279572 3625684 1653888 116 3625683 2487 3623196 3622920 1499 3621421 3620041 276 3614681 10166 3604515 3604064 3596104 95397 2013 93384 83644
is_linear=0
shrinkage=1


Tree=14
num_leaves=31
num_cat=0
split_feature=13 17 7 14 19 14 19 2 14 19 1 4 14 19 7 4 14 19 1 14 4 19 14 19 14 7 19 7 14 19
split_gain=381.499 1165.5 2.62477e-07 1.3023e-08 1.66168e-08 8.42619e-09 1.66167e-08 4.11138e-07 1.67748e-08 1.66209e-08 5.08674e-07 1.40337e-08 5.64741e-09 1.66195e-08 5.05266e-07 1.11456e-08 5.64897e-09 1.66181e-08 1.11347e-08 8.43374e-09 1.92148e-07 1.66168e-08 5.65187e-09 1.66159e-08 1.67865e-08 7.01638e-08 1.66152e-08 2.63497e-07 1.67872e-08 1.66145e-08
threshold=0.080154121141551224 0.75285871858269293 6.0636793149361944e-05 1.0000000180025095e-35 1.0000000180025095e-35 0.0028378857750975006 5.7776126760597889e-06 0.0091753265277653515 0.0054984036892514509 1.3954611472450867e-05 0.61143859950405866 0.00024442721595890004 0.034586732884001409 2.3264322369196011e-05 5.1839745438573678e-05 1.1310639571344287e-05 0.063320326356864118 2.9342468137406398e-05 0.45103217164082127 0.066867683575736067 3.1699289736722288e-07 3.5613008812836006e-05 0.088506562610854919 4.7444885963862585e-05 0.10021284143313232 0.0013500326433305502 6.726331296902809e-05 0.0095036391501297519 0.10606598084427102 8.7662163588984402e-05
decision_type=2 2 2 2 2 2 2 2 2 2 2 2 2 2 2 2 2 2 2 2 2 2 2 2 2 2 2 2 2 2
left_child=3 -2 -3 -1 -5 11 7 -7 -8 10 -10 -6 15 14 -14 -11 18 -18 -15 20 -19 -21 -23 -24 25 -25 27 -26 -28 -30
right_child=1 2 -4 4 5 6 8 -9 9 12 -12 -13 13 16 -16 -17 17 19 -20 21 -22 22 23 24 26 -27 28 -29 29 -31
leaf_value=-5.4527094410792465 -5.4526773961221915 5.6466724720139414 5.6473214793688502 -5.4526410226876978 -5.4527261766357489 -5.4517450640879126 -5.4527137860991735 -5.4526774020294289 -5.4515326899905743 -5.4527138047978827 -5.4526774021485851 -5.4526774020294297 -5.4515401230120197 -5.4527137926687645 -5.4526774024108144 -5.4526773961221915 -5.4526410150873801 -5.4531142782426434 -5.4526774020294297 -5.4526410151346658 -5.4526774027999405 -5.4526895317605275 -5.4526410134365912 -5.4528666445632012 -5.4520669324768916 -5.4526773965441322 -5.4527137902095557 -5.4526774047777096 -5.4526410126111413 -5.4526774019371302
leaf_weight=0.031532090268420521 0.09459470584988583 0.0016435400357295285 0.029888077009672998 0.031534466892480739 0.023520500399172195 0.0012304585026184913 0.031530369073152431 0.030302171821745105 0.0010023420834243115 0.03152952343225468 0.03053119721177211 0.039539537392556667 0.001008900222316699 0.031529795378446468 0.03052432987378495 0.063063144683837891 0.031532999128103145 0.0026262424253217223 0.063063066452741623 0.031533040106296428 0.060435449395299656 0.094593144953250774 0.031531568616628536 0.0060638012364505603 0.001879652962088473 0.025467789731919765 0.031531926244497188 0.029651535674929619 0.031530853360891231 6.0540536679327488
leaf_count=204 253212 1192 21678 1128874 94 34613 556 853363 21704 22 662388 43 9767 7 296020 690 64897 1 145 65176 1394 115 179490 775 8985 3255 88 141718 118208 1519661
internal_value=-5.40268 -2.67768 5.64729 -5.45268 -5.45268 -5.45268 -5.45268 -5.45264 -5.45268 -5.45268 -5.45264 -5.4527 -5.45268 -5.45268 -5.45264 -5.45269 -5.45268 -5.45268 -5.45269 -5.45268 -5.4527 -5.45268 -5.45268 -5.45268 -5.45268 -5.45271 -5.45268 -5.45264 -5.45268 -5.45268
internal_weight=0 0.126126 0.0315316 6.87387 6.84234 6.81081 6.74775 0.0315326 6.71621 6.68468 0.0315335 0.06306 6.65315 6.55856 0.0315332 0.0945927 6.52702 6.43243 0.0945929 6.4009 0.0630617 6.33784 6.3063 6.21171 6.18018 0.0315316 6.14865 0.0315312 6.11712 6.08558
internal_count=5388335 276082 22870 5112253 5112049 3983175 3983038 887976 3095062 3094506 684092 137 2410414 2409702 305787 712 2103915 2103763 152 2038866 1395 2037471 1972295 1972180 1792690 4030 1788660 150703 1637957 1637869
is_linear=0
shrinkage=1


Tree=15
num_leaves=31
num_cat=0
split_feature=15 13 3 1 14 1 4 14 7 1 14 7 9 14 2 2 17 5 1 14 1 1 17 2 17 1 2 17 0 2
split_gain=36.1666 1510.86 9.03742e-07 1.20779e-07 1.13279e-08 3.20131e-07 4.78363e-08 1.13261e-08 3.32687e-07 3.6513e-08 1.08415e-08 3.41628e-07 2.18278e-07 1.08874e-08 3.14983e-07 2.00255e-07 1.20166e-08 3.62718e-07 2.65679e-07 1.13245e-08 2.67012e-07 2.18889e-07 1.13128e-08 2.08537e-07 1.20034e-08 3.64657e-07 2.13235e-07 1.19916e-08 3.12579e-07 2.41516e-07
threshold=0.0030206079343385005 5.8485074039142593e-07 5.1199479290287956e-08 0.29599749729135511 0.20681092586023411 0.34582529649587818 0.013236418631994202 0.49556580347641005 1.0000000180025095e-35 0.65074670114120858 0.55250088683930476 1.5709013769264751e-06 2.6422637091188035e-05 0.58939340191557299 1.3509760330568128e-05 0.005104175961172251 1.0000000180025095e-35 8.6707529411764729e-09 0.3732723397798377 0.65129478538488839 0.62006819440116623 0.43214072413844656 9.6351379233771275e-09 2.9847144916371442e-05 1.2006581627358698e-08 0.77552026855878975 4.4927807610959125e-05 1.5484500060425625e-08 0.33488144342078302 6.0636831251154613e-05
decision_type=2 2 2 2 2 2 2 2 2 2 2 2 2 2 2 2 2 2 2 2 2 2 2 2 2 2 2 2 2 2
left_child=-1 2 -2 -3 6 -6 -5 9 -9 -7 12 -12 -10 15 -15 -13 17 -16 -18 20 -20 -21 -23 -24 25 -25 -26 28 -28 -29
right_child=1 3 -4 4 5 7 -8 8 10 -11 11 13 -14 14 16 -17 18 -19 19 21 -22 22 23 24 26 -27 27 29 -30 -31
leaf_value=-5.4526773263438368 5.6478277855427903 -5.4532122423764671 5.6472917987508415 -5.4525211328971395 -5.4535218703429571 -5.4525510138898987 -5.4526773906364063 -5.4535745875196548 -5.4520592348427384 -5.452677392683043 -5.4535987003805619 -5.452107661424594 -5.4526773888079738 -5.4534842605999811 -5.4517169928312903 -5.4526773856793955 -5.4533782579803027 -5.4526773888079738 -5.4519427241014364 -5.4532547940238949 -5.4526773888079738 -5.4526473423263848 -5.4532114790080266 -5.451711952568628 -5.4532235078410949 -5.4526773857517234 -5.4518455844309859 -5.4532960204873584 -5.4526773919743805 -5.4526766535410127
leaf_weight=5.8648656383749298 0.015009582042693981 0.0010545000792773198 0.016521278768777847 0.006064217237877644 0.0011220176907896775 0.0074984527670379766 0.025467788800597191 0.0010330528447467504 0.0014993899829390802 0.024033701978623867 0.0010060156529901878 0.0016266714624746373 0.030032776364805613 0.0012092089969542022 0.0010159177925856957 0.029768235479423311 0.0013517726308940317 0.030456094299324832 0.0012895643207890819 0.0016407842656711571 0.03021533259015996 0.031531864487224226 0.0018268318742684633 0.0010105274996590188 0.0017865913598029684 0.030472718150349465 0.0011730978815762674 0.0015770268643677801 0.030331750209370512 0.8065075637806558
leaf_count=2513021 1659 2163 1826 775 3102 1032 3255 3032 282 3308 2719 47 5651 4248 392 861 728 11781 182 3082 4270 58244 4862 898 5612 27139 1088 5137 28189 2689750
internal_value=-5.40268 -5.14434 5.64755 -5.45268 -5.45268 -5.45268 -5.45265 -5.45268 -5.45268 -5.45265 -5.45268 -5.45268 -5.45265 -5.45268 -5.45268 -5.45265 -5.45268 -5.45265 -5.45268 -5.45268 -5.45265 -5.45268 -5.45268 -5.45268 -5.45268 -5.45265 -5.45268 -5.45268 -5.45265 -5.45268
internal_weight=0 1.13513 0.0315309 1.1036 1.10255 1.07102 0.031532 1.06989 1.03836 0.0315322 1.03733 1.0058 0.0315322 1.00479 0.973397 0.0313949 0.972187 0.031472 0.940715 0.939364 0.0315049 0.907859 0.906218 0.874686 0.872859 0.0314832 0.841376 0.839589 0.0315048 0.808085
internal_count=5388335 2875314 3485 2871829 2869666 2865636 4030 2862534 2858194 4340 2855162 2849229 5933 2846510 2845602 908 2841354 12173 2829181 2828453 4452 2824001 2820919 2762675 2757813 28037 2729776 2724164 29277 2694887
is_linear=0
shrinkage=1


Tree=16
num_leaves=31
num_cat=0
split_feature=12 8 8 7 2 7 9 9 1 7 19 12 8 19 8 1 17 8 1 19 1 19 1 9 1 1 19 12 19 2
split_gain=66.9999 1480 5.60008e-09 2.09943e-08 2.54132e-09 3.07172e-09 9.48268e-09 3.17878e-09 2.50874e-09 1.95668e-09 1.1858e-07 3.80776e-09 1.02941e-07 1.5478e-09 4.15129e-09 6.179e-09 2.22045e-09 1.52669e-09 4.32631e-09 1.50752e-09 2.8174e-09 1.48416e-09 4.49879e-09 1.45777e-09 2.28684e-09 6.82303e-09 1.4248e-09 1.41061e-09 1.42534e-09 3.51685e-08
threshold=1.0000000180025095e-35 0.0012665849537810002 0.00063265919769940008 3.4559830292382452e-06 0.00066857604612665007 0.00065915021775830006 0.00010780724417405002 0.00023148354431725004 0.3732723397798377 1.0000000180025095e-35 0.00013714286557385002 1.7212675724844948e-20 5.319433492002656e-05 0.0033364935803996505 2.6455148832601295e-06 0.43997777038716462 3.850233713679206e-05 3.6730964431000636e-09 0.45103217164082127 0.0065654454643912508 0.4765084866300851 0.007870265842949203 0.50441404837740766 0.0016193026545805002 0.81666696916772807 0.54245956967934694 1.0000000180025095e-35 1.3606926944340987e-13 5.7776126760597889e-06 0.0091753265277653515
decision_type=2 2 2 2 2 2 2 2 2 2 2 2 2 2 2 2 2 2 2 2 2 2 2 2 2 2 2 2 2 2
left_child=1 2 3 -1 5 6 -5 -8 -9 10 -2 12 -11 -10 15 -15 17 18 -17 -20 -21 -22 -23 -24 25 -25 -13 -28 29 -29
right_child=9 -3 -4 4 -6 -7 7 8 13 11 -12 26 -14 14 -16 16 -18 -19 19 20 21 22 23 24 -26 -27 27 28 -30 -31
leaf_value=-5.4525406245482779 -5.4521288780534398 5.6473299992730412 -5.4527193922225505 -5.4526457080110395 -5.4526967942975704 -5.4526996021147633 -5.4526975732284653 -5.4526606460114833 -5.4526888123759578 -5.4531633554882974 -5.4526773855431889 -5.452666783478378 -5.4526773847833301 -5.4526552888006625 -5.4527075329072705 -5.4526590605769032 -5.4527014459275964 -5.4526884800243014 -5.4526888064980064 -5.4526589345453225 -5.4526888005873602 -5.4526474186815843 -5.4526887946479148 -5.4526538169483363 -5.4526916575246016 -5.452679239707714 -5.4526879877296768 -5.4524037011268858 -5.4526774391760213 -5.4526773817098784
leaf_weight=0.0027966062778473902 0.0010014460085584478 0.031531535089015961 0.0080079557374119759 0.023523583309724927 0.017350575537420809 0.015166200697422028 0.020224034786224365 0.021498772199265659 0.031531462125713006 0.0011302189689387223 0.061282704094082874 0.0315336704077821 0.03040139575387002 0.031531633081613109 0.011158031411468983 0.031531653366982937 0.010032723657786846 0.030318738892674446 0.031531381217064336 0.019519663619576022 0.031531390530290082 0.012012112158117816 0.031531479442492127 0.030546393012627959 0.025232885032892227 0.19405436608940363 0.031528788822640652 0.0012211358485386672 6.1494352831849994 0.030302170092227243
leaf_count=8 4487 1631 32 94 780 721 406 15 36 302 3323 1128855 8124 22 224 7 7 25 533 13 331 8 665 62 649 1430 75 34357 3347750 853363
internal_value=-5.40268 -4.92411 -5.45268 -5.45268 -5.45268 -5.45268 -5.45268 -5.45268 -5.45268 -5.45268 -5.45267 -5.45268 -5.45269 -5.45268 -5.45268 -5.45268 -5.45268 -5.45268 -5.45268 -5.45268 -5.45268 -5.45268 -5.45268 -5.45268 -5.45268 -5.45268 -5.45268 -5.45268 -5.45268 -5.45267
internal_weight=0 0.662163 0.630632 0.622624 0.619827 0.602477 0.58731 0.563787 0.543563 6.33784 0.0622842 6.27555 0.0315316 0.522064 0.490532 0.479374 0.447843 0.43781 0.407491 0.37596 0.344428 0.324909 0.293377 0.281365 0.249834 0.224601 6.24402 6.21249 6.18096 0.0315233
internal_count=5388335 7699 6068 6036 6028 5248 4527 4433 4027 5380636 7810 5372826 8426 4012 3976 3752 3730 3723 3698 3691 3158 3145 2814 2806 2141 1492 5364400 4235545 4235470 887720
is_linear=0
shrinkage=1


Tree=17
num_leaves=31
num_cat=0
split_feature=0 0 1 10 13 10 19 14 10 0 1 19 10 19 16 14 10 19 10 16 1 10 1 17 10 16 0 15 10 0
split_gain=27.6273 534.134 971.047 0.000697222 0.0130818 0.0136267 2.77135e-07 1.18403e-08 5.77726e-09 1.35123e-07 6.75052e-08 1.51456e-07 1.50778e-08 1.70491e-07 1.99039e-08 1.11084e-07 3.62267e-09 9.49499e-08 1.4166e-08 2.36238e-07 1.11221e-07 1.2497e-08 1.07951e-07 9.90966e-08 4.23051e-08 6.92899e-08 9.28214e-09 1.29311e-07 8.21749e-09 9.2013e-08
threshold=0.53263070055900041 0.53606628438635362 0.98726919323983531 0.7301883104840684 2.474203201921053e-05 0.74043087783829364 0.0021057133046909005 0.18659098971266402 1.0000000180025095e-35 0.55230169880724278 0.53175108582797315 0.019202760788812456 0.0066321773552047011 0.0074838130022151011 4.9641533970333495e-06 0.43756651294785387 0.48852473155593551 0.00040651427450615003 0.014638187920740451 6.2976746040994337e-05 0.57928295156666254 0.022828872614305554 0.58427329546003526 1.2435151196442044e-07 0.03290560443174801 0.00023035450278730005 0.54164753467098559 0.00054006526525135002 0.47992941917487203 0.54369435117492293
decision_type=2 2 2 2 2 2 2 2 2 2 2 2 2 2 2 2 2 2 2 2 2 2 2 2 2 2 2 2 2 2
left_child=3 2 6 -1 5 -5 -2 -8 9 -3 11 -10 13 -12 15 -14 18 -18 19 -16 -20 23 -23 -22 25 -24 27 -26 29 -28
right_child=1 8 -4 4 -6 -7 7 -9 10 -11 12 -13 14 -15 16 -17 17 -19 20 -21 21 22 24 -25 26 -27 28 -29 -30 -31
leaf_value=-5.4526773381578968 -5.452019989448794 -5.4531794642936608 5.579081148958152 -5.3873030384795184 -5.4526773585438226 -5.4526773469241201 -5.4527262731250019 -5.452677358706298 -5.451938579602178 -5.4526773583699333 -5.453302514182961 -5.4526773587062776 -5.4521142377001954 -5.4526773587062962 -5.4531653984917154 -5.4526773587062909 -5.4523260649249039 -5.4526773587062989 -5.4523015343272245 -5.4526773586732231 -5.4530532947714017 -5.4523125537141377 -5.4530532952027215 -5.4526773587062971 -5.4521819705704706 -5.4526773589307513 -5.4530064992742231 -5.4526773587439328 -5.4526486664057963 -5.4526773589409991
leaf_weight=5.0241513601664387 0.0015611787430315207 0.0013956923933909895 0.031631294637918472 0.016077426109816773 0.53737633987229572 0.015809007665666286 0.019995637150714174 0.032447400153614581 0.0010036454455003554 0.03352820707747739 0.0011860611871340474 0.0022467422095360234 0.0010338672888109404 0.013549970251915511 0.0026276836765645175 0.0057267341908300295 0.0019947039836550875 0.053889168601017445 0.0019715748037824046 0.043996180438512056 0.0019709842341270037 0.0020311221821670547 0.001970986327474721 0.015846690503963146 0.0014136189320196326 0.0032414401289422301 0.0021275430149215726 0.019332547286694535 0.024405900941928738 1.0844594498520477
leaf_count=3122901 3588 17 1339 29097 380607 29159 26 364 1121 401 1363 4 2 63 1 248 6058 14755 3942 3897 2 512 2 1392 44 1319 3805 3276 22414 1756616
internal_value=-5.40268 -5.2046 -1.37786 -5.45249 -5.45083 -5.41972 -5.45268 -5.4527 -5.45268 -5.4527 -5.45268 -5.45245 -5.45268 -5.45273 -5.45268 -5.45259 -5.45268 -5.45266 -5.45268 -5.4527 -5.45268 -5.45268 -5.45268 -5.45272 -5.45268 -5.45282 -5.45268 -5.45264 -5.45268 -5.45268
internal_weight=0 1.40659 0.0856355 5.59341 0.569263 0.0318864 0.0540042 0.052443 1.32095 0.0349239 1.28603 0.00325039 1.28278 0.014736 1.26804 0.0067606 1.26128 0.0558839 1.2054 0.0466239 1.15877 1.1568 1.13898 0.0178177 1.13695 0.00521243 1.13174 0.0207462 1.11099 1.08659
internal_count=5388335 1826571 5317 3561764 438863 58256 3978 390 1821254 418 1820836 1125 1819711 1426 1818285 250 1818035 20813 1797222 3898 1793324 1789382 1787988 1394 1787476 1321 1786155 3320 1782835 1760421
is_linear=0
shrinkage=1


Tree=18
num_leaves=31
num_cat=0
split_feature=18 11 19 2 0 19 2 9 19 1 9 19 1 7 19 19 9 2 19 9 15 19 9 2 19 9 19 0 9 19
split_gain=1547.01 5.25358e-08 1.27617e-08 2.05645e-08 9.18012e-07 3.44361e-08 8.45061e-07 3.10395e-08 3.1763e-08 9.28996e-07 8.96107e-07 3.17864e-08 8.99245e-07 1.94253e-08 1.05702e-06 3.47754e-08 3.00613e-08 8.7723e-07 3.17446e-08 2.96575e-08 6.79239e-07 3.16929e-08 8.47421e-07 4.86872e-07 3.17704e-08 2.99256e-07 3.18072e-08 9.65585e-07 4.20447e-08 3.23569e-08
threshold=0.90991810899807168 1.0000000180025095e-35 1.0000000180025095e-35 1.0000000180025095e-35 0.28872250646904979 5.7776126760597889e-06 0.0091753265277653515 9.4099754174415534e-07 1.3954611472450867e-05 0.62006819440116623 2.6313525561133082e-06 2.3264322369196011e-05 0.58875561733519854 1.0000000180025095e-35 0.00021780636678545004 2.9342468137406398e-05 3.940293131348183e-06 0.00012661473053990002 4.0442751429662231e-05 7.0625215993919406e-06 0.0005467722366183001 6.726331296902809e-05 1.1402271138254278e-05 0.0095030167608998028 8.1915109579453683e-05 1.2545908889789979e-05 8.7662163588984402e-05 0.13510929541256814 1.3613494122640858e-05 9.3655992328525338e-05
decision_type=2 2 2 2 2 2 2 2 2 2 2 2 2 2 2 2 2 2 2 2 2 2 2 2 2 2 2 2 2 2
left_child=2 -2 -1 4 -4 6 -5 -7 9 -9 -10 12 -12 14 -13 -15 17 -17 -18 20 -20 23 -23 -21 -24 -26 27 -27 -28 -30
right_child=1 -3 3 5 -6 7 -8 8 10 -11 11 13 -14 15 -16 16 18 -19 19 21 -22 22 24 -25 25 26 28 -29 29 -31
leaf_value=-5.4526456705221698 5.6474573053100672 5.6473215471979659 -5.4541044222028576 -5.4513404237144467 -5.4526773307915688 -5.4527266906186149 -5.4526773307915679 -5.4511563353878651 -5.4540963965183531 -5.4526773309824614 -5.4512033963617528 -5.4543060963775734 -5.4526773307915679 -5.4526249269943223 -5.4526773290933912 -5.4541140267338601 -5.4526272922965244 -5.4526773307915679 -5.4537999192416482 -5.4518565326865449 -5.4526773307915679 -5.4540192207749367 -5.4526272555498254 -5.4526773307915679 -5.4531513512079552 -5.4510983928115628 -5.4527441214245131 -5.4526773292646649 -5.4526263376820516 -5.4526775678001247
leaf_weight=0.031535128595382989 0.010881502272695687 0.020649947134643298 0.0011523049126561649 0.0012300015574647763 0.051110229827106224 0.031988192354228562 0.030302177978398959 0.0010380948286278216 0.0011126557511021975 0.030492293623389344 0.0010712341002497841 0.0010145378453286771 0.030436372621565511 0.03153291202261943 0.054815684010691257 0.001099064779795599 0.031556143087284272 0.03192515379487304 0.0014065901972680752 0.0019237640777535195 0.032063620616099797 0.0011767322299770502 0.03153345121460116 0.029685540869621718 0.0033311509302061939 0.001000031036641035 0.023642413450103095 0.030497096055938755 0.030970420085496886 6.4178258920155429
leaf_count=1128874 9462 17956 20 34609 667 570 853363 22513 403 661544 10378 3184 295167 64897 3143 10 179535 65439 8 9325 246171 502 204 141984 1789 3743 80048 114330 115803 1322694
internal_value=-5.40268 5.64737 -5.45268 -5.45268 -5.45271 -5.45268 -5.45263 -5.45268 -5.45268 -5.45263 -5.45268 -5.45268 -5.45263 -5.45268 -5.45271 -5.45268 -5.45268 -5.45273 -5.45268 -5.45268 -5.45272 -5.45268 -5.45268 -5.45263 -5.45268 -5.45268 -5.45268 -5.45263 -5.45268 -5.45268
internal_weight=0 0.0315314 6.96847 6.93693 0.0522625 6.88467 0.0315322 6.85314 6.82115 0.0315304 6.78962 6.78851 0.0315076 6.757 0.0558302 6.70117 6.66964 0.0330242 6.63661 6.60506 0.0334702 6.57159 6.53998 0.0316093 6.5388 6.50727 6.50394 0.0314971 6.47244 6.4488
internal_count=5388335 27418 5360917 4232043 687 4231356 887972 3343384 3342814 684057 2658757 2658354 305545 2352809 6327 2346482 2281585 65449 2216136 2036601 246179 1790422 1639113 151309 1638611 1638407 1636618 118073 1518545 1438497
is_linear=0
shrinkage=1


Tree=19
num_leaves=31
num_cat=0
split_feature=17 15 2 15 2 15 2 15 2 15 2 1 15 2 2 15 2 6 2 14 10 12 9 10 9 9 10 19 9 19
split_gain=148.4 1398.6 1.54226e-08 1.35652e-08 3.4528e-07 1.37368e-08 3.66184e-07 1.40322e-08 3.73333e-07 1.43277e-08 2.44404e-07 1.83771e-08 1.43207e-08 3.48093e-07 2.23568e-08 1.52391e-08 2.52217e-07 4.50973e-09 3.1456e-09 1.03639e-09 1.99805e-09 5.71898e-08 3.79516e-09 9.5829e-10 1.083e-07 5.98724e-09 1.55783e-09 5.19133e-08 5.96226e-08 9.2175e-09
threshold=0.26991113974019126 0.017851310018993153 0.00015928949971150003 9.7910162950865179e-06 0.00028119152315945003 1.21000365870978e-05 0.00047724013818910006 5.9988325904843825e-05 0.00049452006419330012 0.00028198126929845007 0.0014263793465297003 0.55253690076967577 0.00054006526525135002 0.0015068095475675003 0.023218565301154504 0.0014965403714556002 0.0018640327451455504 1.5583929851537097e-05 0.0015068095475675003 1.0000000180025095e-35 1.0000000180025095e-35 2.706160776114255e-12 9.4099754174415534e-07 0.0066321773552047011 2.6313525561133082e-06 2.6313525561133082e-06 0.014638187920740451 0.00027608599779405004 0.00027781079294095007 5.7776126760597889e-06
decision_type=2 2 2 2 2 2 2 2 2 2 2 2 2 2 2 2 2 2 2 2 2 2 2 2 2 2 2 2 2 2
left_child=19 2 -2 -4 -5 -6 -7 -8 -9 11 -11 -10 14 -14 -12 -15 -17 -3 -19 -1 21 -21 -22 24 -24 -25 27 28 -27 -28
right_child=1 17 3 4 5 6 7 8 9 10 12 -13 13 15 -16 16 -18 18 -20 20 22 -23 23 25 -26 26 29 -29 -30 -31
leaf_value=-5.4526683093622328 -5.4528654018065872 5.6472842881208134 -5.4526460647785653 -5.4535553812223574 -5.452646088013454 -5.453608809914309 -5.452645954750758 -5.4536275372789742 -5.4525995246111334 -5.4533189215829552 -5.4525884750807601 -5.4526773826049979 -5.4535902688447377 -5.4526467174543578 -5.4526773822139241 -5.4534060372766522 -5.4526773776653661 5.6473534797429927 5.6473102775132205 -5.452967454452156 -5.4526601293684553 -5.4526773776653652 -5.453172901857819 -5.4526501859829546 -5.4526773776538855 -5.4531902951702396 -5.4526321200662515 -5.4526773776653652 -5.4526773766028391 -5.4526773965222324
leaf_weight=0.031531251629438262 0.0010903247868155877 0.011658094299491495 0.031506941300989411 0.0011236552271896008 0.031530337542761799 0.0010592002664964175 0.031396619272840098 0.0010383237428470684 0.012673445228045921 0.0014966192990470964 0.010800976010926888 0.018854078580602618 0.0010518100504270924 0.031323137925340916 0.020475108176469803 0.0012039915906996148 0.087158594873841366 0.0060637440183199933 0.013809726573526859 0.0017582688805325422 0.03195595520925909 0.050538292674943364 0.0011123316823463672 0.020270436024762861 0.12675085020968879 0.0010746143905996366 0.011261082210896833 0.076137122837621973 0.0011984093925718753 6.331096681830175
leaf_count=204 3901 1490 65127 2083 64897 3664 50073 1613 9499 4783 9393 14130 1634 1121469 17804 1874 306918 775 1765 7 566 680 405 570831 6812 3897 317079 2819 1570 2800573
internal_value=-5.40268 -4.34268 -5.45268 -5.45268 -5.45268 -5.45268 -5.45268 -5.45268 -5.45268 -5.45268 -5.45268 -5.45265 -5.45268 -5.45268 -5.45265 -5.45268 -5.45269 5.64731 5.64732 -5.45268 -5.45268 -5.45269 -5.45268 -5.45268 -5.45268 -5.45268 -5.45268 -5.45268 -5.45292 -5.45268
internal_weight=0 0.315315 0.283783 0.282693 0.251186 0.250062 0.218532 0.217473 0.186076 0.185038 0.15351 0.0315275 0.152014 0.120738 0.0312761 0.119686 0.0883626 0.0315316 0.0198735 6.68469 6.65315 0.0522966 6.60086 6.5689 0.127863 6.44104 6.42077 0.0784101 0.00227302 6.34236
internal_count=5388335 1682892 1678862 1674961 1609834 1607751 1542854 1539190 1489117 1487504 1463875 23629 1459092 1431895 27197 1430261 308792 4030 2540 3705443 3705239 687 3704552 3703986 7217 3696769 3125938 8286 5467 3117652
is_linear=0
shrinkage=1


Tree=20
num_leaves=31
num_cat=0
split_feature=10 10 0 2 19 7 8 12 19 2 8 12 1 13 19 1 19 19 0 2 13 1 13 13 0 13 8 12 12 16
split_gain=91.4604 1455.46 1.95409e-05 0.000102599 1.80768e-07 2.397e-07 7.85649e-08 7.61752e-07 4.51824e-07 7.89342e-07 4.16414e-07 2.99688e-07 6.95263e-08 7.07642e-07 2.03691e-07 3.63172e-07 1.1671e-06 1.61108e-07 1.49197e-08 2.80105e-08 1.64438e-07 2.63719e-08 1.60506e-07 1.4557e-07 2.27395e-08 1.7881e-07 1.38012e-07 1.56103e-08 4.22987e-07 6.90153e-08
threshold=0.74024588908255351 0.74148220325009373 0.70872570938288171 6.0636831251154613e-05 5.7776126760597889e-06 5.1839745438573678e-05 8.8740887370055348e-11 0.00010364587269955001 1.3954611472450867e-05 0.0090358303978404012 8.1638621519836116e-09 1.0375226989504027e-06 0.86122931381411327 0.0015288916397173003 8.1915109579453683e-05 0.87601346223944987 0.00011982479647685001 0.00015122242719355005 0.26880767102991504 0.00015928949971150003 0.00019583796076360003 0.98457477661350412 0.0029137983608401503 0.031567290481998002 0.26709018487163766 0.0032020250299399007 0.005066335988770901 7.6198612824548843e-06 4.1129080492974521e-05 0.020075933965340353
decision_type=2 2 2 2 2 2 2 2 2 2 2 2 2 2 2 2 2 2 2 2 2 2 2 2 2 2 2 2 2 2
left_child=2 -2 -1 -4 5 -3 7 -6 9 -8 -10 -12 13 -13 -14 -16 -17 -18 19 -19 -21 23 -23 -22 25 -24 -26 -27 -29 -30
right_child=1 4 3 -5 6 -7 8 -9 10 -11 11 12 14 -15 15 16 17 18 -20 20 21 22 24 -25 26 27 -28 28 29 -31
leaf_value=-5.4526775079055048 5.6473310860726338 -5.4516839461737439 -5.4357360471607983 -5.4526773680846929 -5.4538625696837446 -5.45267736801949 -5.4509285772174989 -5.4526773679185876 -5.4532651011171867 -5.4526773671991497 -5.4522557519746515 -5.4537880302014328 -5.4523873245259438 -5.4526773680195229 -5.4531969394875537 -5.4510113206058248 -5.4530614461611169 -5.4527276148695494 -5.4526244695438644 -5.4520942457848491 -5.4532941906408192 -5.4520978175795589 -5.453334092511616 -5.4526773680195175 -5.4520907156080467 -5.4526437515148611 -5.4526773680195184 -5.4536821662695294 -5.4526739405027582 -5.4528373664221501
leaf_weight=6.4957409884758128 0.031529966665402642 0.0010627000404070932 0.0010640659924091569 0.0055817373872741882 0.0014964349909263311 0.0014166850928063468 0.0010141551667999229 0.01441716102999635 0.0030176080688164566 0.0017738721808200353 0.0042070070623481106 0.0015761726926868383 0.0060348831027638985 0.015914262819023861 0.0033688889519467571 0.0010506140121364629 0.0027487824903573701 0.027663600095145569 0.012906847900012508 0.0012130028718999588 0.0011262534583309494 0.001198685330216164 0.0010395977378010448 0.0063466618948950781 0.00116381108496455 0.031408696405989645 0.0072338404133915901 0.0010508910968383125 0.30803366814252797 0.0065985477089611768
leaf_count=4989443 58244 29918 316 3430 5597 39896 21995 14137 6382 38485 795 2 29371 267 3203 3859 5483 38 7573 1 93 125 34 11345 2461 50090 816 693 55531 8712
internal_value=-5.40268 -4.74935 -5.45267 -5.44996 -5.45268 -5.45225 -5.45268 -5.45279 -5.45268 -5.45204 -5.45268 -5.45268 -5.45268 -5.45278 -5.45268 -5.45268 -5.45268 -5.45268 -5.45268 -5.45268 -5.45268 -5.45268 -5.45268 -5.45277 -5.45268 -5.45268 -5.4526 -5.45268 -5.45268 -5.45268
internal_weight=0 0.497613 6.50239 0.0066458 0.466083 0.00247939 0.463604 0.0159136 0.44769 0.00278803 0.444902 0.441885 0.437678 0.0174904 0.420187 0.414152 0.410784 0.409733 0.406984 0.394077 0.366414 0.365201 0.357728 0.00747292 0.356529 0.348131 0.00839765 0.347092 0.315683 0.314632
internal_count=5388335 395146 4993189 3746 336902 69814 267088 19734 247354 60480 186874 180492 179697 269 179428 150057 146854 142995 137512 129939 129901 129900 118462 11438 118337 115060 3277 115026 64936 64243
is_linear=0
shrinkage=1


Tree=21
num_leaves=31
num_cat=0
split_feature=14 14 7 19 19 2 4 12 1 12 7 2 12 0 7 4 2 8 16 7 10 0 19 2 14 19 1 7 19 19
split_gain=214.997 1331.99 8.00835e-07 1.01875e-07 6.81628e-08 2.13285e-06 2.03914e-06 6.67327e-08 2.15929e-06 6.69001e-08 2.29905e-06 1.76968e-06 7.20739e-08 2.13026e-06 2.00835e-06 7.80257e-07 4.05677e-07 2.17669e-07 1.67091e-07 2.93758e-08 5.97031e-10 2.66544e-08 9.98543e-10 2.45185e-08 5.76847e-10 5.83427e-10 1.77031e-08 4.84908e-10 2.28325e-08 8.50714e-10
threshold=0.91273501241575039 0.91681447321745302 1.0000000180025095e-35 1.0000000180025095e-35 0.00031087656741815003 0.0001083922631173 0.0075038648242989007 0.00032685818211080009 0.43214072413844656 0.00012021149991695 1.2253030740026506e-05 0.00059285855218090011 8.8086910702499249e-05 0.25528195739319731 0.00060416866956585012 5.742235961742867e-05 0.0064827998758358509 0.0012665845811517002 0.031980881096188907 0.025713142098083255 1.0000000180025095e-35 0.28872250646904979 5.7776126760597889e-06 0.0091753265277653515 0.90901028733593481 1.3954611472450867e-05 0.61143859950405866 1.0000000180025095e-35 0.00045633847777845003 2.3264322369196011e-05
decision_type=2 2 2 2 2 2 2 2 2 2 2 2 2 2 2 2 2 2 2 2 2 2 2 2 2 2 2 2 2 2
left_child=3 19 -3 -1 5 -4 -6 8 -7 10 -10 -11 14 -14 -12 -16 -17 -18 -19 -2 21 -5 23 -22 25 26 -24 28 -27 -29
right_child=1 2 4 20 6 7 -8 -9 9 11 12 -13 13 -15 15 16 17 18 -20 -21 22 -23 24 -25 -26 27 -28 29 -30 -31
leaf_value=-5.4525873678858376 5.647194585206111 -5.4513689726392558 -5.4503896908881222 -5.4529206668202406 -5.4549222752064619 -5.4503618063066419 -5.452677408772308 -5.452752022147914 -5.4502878641454098 -5.4546350352474429 -5.4505523523248218 -5.4526774095545605 -5.4550263305693454 -5.4526774101155864 -5.4540067034182877 -5.4520142578180106 -5.4530732062738752 -5.4526026042440501 -5.4527793667811961 5.6473363320263354 -5.4524496975157728 -5.4526774108119147 -5.4524636545141902 -5.4526774105202689 -5.4526841936219714 -5.4529031112615405 -5.4526774103281781 -5.4526692102299688 -5.452677411197981 -5.4526774467430181
leaf_weight=0.031535508482399055 0.0042199082672594859 0.001162252617106673 0.0010169060013538447 0.0011514699478566417 0.0010469815970282062 0.0010045663699855814 0.029929317483038176 0.031497682178269315 0.0010036219558173789 0.001200496910655601 0.0011059505604436018 0.030096332607740806 0.0010005119061133874 0.027380049248222349 0.0011251179842446382 0.0022189495272897366 0.0037185906989662945 0.03139762728704909 0.023283845818838245 0.027311403304338455 0.0012301004559843723 0.051140074432282745 0.0010003548403431086 0.030302177562475663 0.031523279051725583 0.0011445022712307509 0.030530826952613666 0.031501502319812746 0.053536500857035207 6.51468342137305
leaf_count=1128874 4483 2367 3454 18 49 3723 1401 246405 3750 2540 3589 63644 3742 102385 3897 7687 12881 50073 80657 29013 34609 657 21677 853363 3978 1440 662380 305479 2607 1747513
internal_value=-5.40268 -3.86697 -5.45268 -5.45268 -5.45269 -5.45267 -5.45275 -5.45269 -5.45267 -5.45269 -5.45267 -5.45275 -5.45269 -5.45276 -5.45266 -5.4527 -5.45268 -5.4527 -5.45268 5.64732 -5.45268 -5.45268 -5.45268 -5.45267 -5.45268 -5.45268 -5.45267 -5.45268 -5.45268 -5.45268
internal_weight=0 0.22072 0.189189 6.77928 0.188027 0.15705 0.0309763 0.156033 0.124536 0.123531 0.0922343 0.0312968 0.0912306 0.0283806 0.0628501 0.0617441 0.060619 0.0584001 0.0546815 0.0315313 6.74774 0.0522915 6.69545 0.0315323 6.66392 6.6324 0.0315312 6.60087 0.054681 6.54618
internal_count=5388335 625740 592244 4762595 589877 588427 1450 584973 338568 334845 268661 66184 264911 106127 158784 155195 151298 143611 130730 33496 3633721 675 3633046 887972 2745074 2741096 684057 2057039 4047 2052992
is_linear=0
shrinkage=1


Tree=22
num_leaves=31
num_cat=0
split_feature=12 12 17 9 0 12 7 16 13 1 9 13 1 9 13 9 9 13 2 9 13 9 0 2 13 2 19 7 13 9
split_gain=15.5217 754.478 777 6.73488e-07 1.73783e-07 4.64007e-09 7.83413e-09 5.79145e-08 2.93963e-09 5.62364e-08 1.96996e-08 5.10778e-09 6.56437e-08 5.27963e-09 2.49716e-09 4.67206e-08 5.3347e-09 5.1109e-09 1.43602e-07 8.78576e-09 5.15406e-09 2.58571e-08 4.13859e-08 6.55651e-09 5.0985e-09 9.75486e-08 1.09524e-08 2.94915e-08 5.14148e-09 1.25912e-08
threshold=1.5078328864188398e-08 1.2669591809593073e-08 0.0002429243858609 3.9911798798947247e-05 0.17877333844658636 1.1417671334863422e-08 1.0000000180025095e-35 0.00011162917985465001 1.2301841907842696e-06 0.55334131803894604 1.0000000180025095e-35 1.0555704495656894e-06 0.69802303200103355 1.1402271138254278e-05 7.4922755516754255e-07 1.3613494122640858e-05 1.5264318823310585e-05 6.3735988485308996e-07 1.3509760330568128e-05 1.9052381785495843e-05 5.8485074039142593e-07 2.4702056640798282e-05 0.64182668454008251 0.0097870359083145515 4.4425743333686314e-07 4.4927807610959125e-05 0.0002939385738367001 0.0025241243324454006 3.131544727641712e-07 4.507282423430014e-05
decision_type=2 2 2 2 2 2 2 2 2 2 2 2 2 2 2 2 2 2 2 2 2 2 2 2 2 2 2 2 2 2
left_child=1 4 3 -3 -1 6 7 -6 10 -10 -8 13 -13 -12 16 -16 -15 19 -19 -18 21 22 -21 -22 26 -26 27 -23 29 -28
right_child=-2 2 -4 -5 5 -7 8 -9 9 -11 11 12 -14 14 15 -17 17 18 -20 20 23 24 -24 -25 25 -27 28 -29 -30 -31
leaf_value=-5.4533017732560447 -5.4526773707083613 5.6485402547059502 -5.4526773707469687 5.6472819522676483 -5.4529272968197784 -5.4526580184899327 -5.4527511906113215 -5.4526773707469678 -5.4524462382336276 -5.4526773707469696 -5.4526975288976391 -5.452401126281532 -5.4526773755294968 -5.4526977123321689 -5.4524850214925147 -5.4526773707469696 -5.4527111409138129 -5.4520972897806299 -5.4526773680652694 -5.4529390283454697 -5.4526312487853517 -5.45287019008176 -5.452677370746958 -5.4526773653621197 -5.4522768803854467 -5.4526773777522477 -5.452718333572828 -5.4526773707469642 -5.4526569802666041 -5.452676926282165
leaf_weight=0.0011138057927525527 4.8243239186704159 0.001101915464459923 0.031531531363725662 0.03042960844868503 0.0026275759565813619 0.031531337648630031 0.0089883116652352824 0.019670932125904983 0.0027738306962418182 0.051357845513848588 0.031804626865778007 0.0023213574895634128 0.029210155946202576 0.031531557193375082 0.0033331164304398744 0.059729861313826405 0.018998666029801714 0.0011057309857277478 0.030387718172278255 0.0024509463073626439 0.01390260886910244 0.0027136496756837714 0.0039414414204657078 0.017295243218541145 0.0016018319893190682 0.029912810216046637 0.018564965507948616 0.007365719713220642 0.03145137894716743 1.6569260767853391
leaf_count=3 5185372 44 22 1215 1 556 20 307 98 1076 64908 96 1208 8063 1789 15151 19131 29 797 2468 8876 2733 1 11042 95 1774 4961 7417 12168 36914
internal_value=-5.40268 -5.29181 0.0973236 5.64733 -5.45268 -5.45268 -5.45268 -5.45271 -5.45268 -5.45267 -5.45268 -5.45268 -5.45266 -5.45268 -5.45268 -5.45267 -5.45268 -5.45268 -5.45266 -5.45268 -5.45268 -5.45268 -5.45278 -5.45266 -5.45268 -5.45266 -5.45268 -5.45273 -5.45268 -5.45268
internal_weight=0 2.17568 0.0630631 0.0315315 2.11261 2.1115 2.07997 0.0222985 2.05767 0.0541317 2.00354 1.99455 0.0315315 1.96302 1.93121 0.063063 1.86815 1.83662 0.0314934 1.80513 1.78613 1.75493 0.00639239 0.0311979 1.74854 0.0315146 1.71702 0.0100794 1.70694 1.67549
internal_count=5388335 202963 1281 1259 201682 201679 201123 308 200815 1174 199641 199621 1304 198317 133409 16940 116469 108406 826 107580 88449 68531 2469 19918 66062 1869 64193 10150 54043 41875
is_linear=0
shrinkage=1


Tree=23
num_leaves=31
num_cat=0
split_feature=7 7 16 16 10 8 19 0 14 8 1 8 1 8 10 8 14 8 12 8 14 8 12 8 13 8 13 8 13 0
split_gain=24.6171 1427.07 0.307971 95.011 1.03046e-08 2.70394e-09 3.66701e-07 5.00774e-08 3.16478e-07 2.5481e-08 4.00328e-08 2.85247e-08 3.23627e-08 2.37698e-08 2.12434e-08 1.82243e-08 1.71522e-08 1.71045e-08 1.42754e-08 1.70453e-08 1.40891e-08 2.05762e-07 3.18923e-07 3.47407e-07 2.19583e-08 2.74607e-07 2.25698e-08 2.27092e-07 2.46709e-08 4.95909e-08
threshold=0.0072280314155140505 0.0073065764843604011 0.0097110606390946024 0.0098554971023178516 0.074614428469838165 1.399576403319162e-09 5.7776126760597889e-06 0.10105671608347495 0.52465413267116012 8.1638621519836116e-09 0.34582529649587818 1.2674082606165787e-08 0.3732723397798377 1.9632067195879653e-08 0.20229664410104628 2.2823177390546162e-08 0.16566158212131957 4.1797304352517965e-08 2.8871142544423595e-09 5.0180336369506415e-08 0.20681092586023411 1.1212943839875288e-07 1.5078328864188398e-08 1.2919166799869191e-07 1.0555704495656894e-06 2.5322390207980862e-07 1.5415548709607282e-06 2.6279991782396651e-07 3.7745609324521826e-06 0.41114410790255729
decision_type=2 2 2 2 2 2 2 2 2 2 2 2 2 2 2 2 2 2 2 2 2 2 2 2 2 2 2 2 2 2
left_child=2 -2 -1 -4 -3 6 -6 8 -7 -9 -11 -12 -13 -14 -15 -16 -17 -18 -19 -20 -21 -22 -23 -24 -25 -26 -27 -28 29 -29
right_child=1 4 3 -5 5 7 -8 9 -10 10 11 12 13 14 15 16 17 18 19 20 21 22 23 24 25 26 27 28 -30 -31
leaf_value=-5.4526773988242621 5.6473357366443464 -5.4527605593721864 5.6473204721005805 -5.4526774010212709 -5.453571887413494 -5.4518074081552284 -5.4526774008486463 -5.4527362388855556 -5.4526773946999567 -5.45258040358459 -5.4527439436915826 -5.4525986684260612 -5.452732551260973 -5.4526243353437689 -5.4527199224111964 -5.4526361968640504 -5.4527152091605782 -5.4526427320903856 -5.4527149758286662 -5.4526430644625448 -5.45315068815502 -5.4519386948685851 -5.4534781590280152 -5.4526348783263261 -5.4531878133665481 -5.4526336719770345 -5.4530990825162098 -5.4525372405790504 -5.4526774007289927 -5.4526774058728762
leaf_weight=5.0916986909309898 0.029596755281090625 0.0037149340314498449 0.0019347405759616567 0.53950902618646523 0.0011523435363186554 0.0012127333474863944 0.20143314439337701 0.017951538834338865 0.0075733500945887045 0.010802146349590092 0.015745925414819228 0.013308096047978668 0.018998564064247492 0.01943748818541724 0.024257342914438484 0.026273838166019692 0.028633566738932359 0.031211807112839551 0.028797742407419946 0.031528851634647026 0.0022873776845528928 0.0014648284097518163 0.0013513162073479626 0.03152937836804881 0.0026267159371684548 0.030659576750821316 0.0031798749221536573 0.009567554389121824 0.75402403473279378 0.018536612391471863
leaf_count=219102 8123 12869 531 1269998 32447 1 266132 13802 11894 9393 29087 9511 19131 14140 20971 10 25499 16179 26762 64896 38011 57 29275 26 12544 141 30571 8971 3180884 17377
internal_value=-5.40268 -5.21233 -5.44887 -5.41301 -5.45268 -5.45268 -5.45268 -5.45268 -5.45256 -5.45268 -5.45268 -5.45268 -5.45268 -5.45268 -5.45268 -5.45268 -5.45268 -5.45268 -5.45268 -5.45268 -5.45268 -5.45268 -5.45268 -5.45268 -5.45268 -5.45268 -5.45268 -5.45268 -5.45268 -5.45263
internal_weight=0 1.36686 5.63314 0.541444 1.33726 1.33355 0.202585 1.13096 0.00878608 1.12217 1.10422 1.09342 1.07767 1.06437 1.04537 1.02593 1.00167 0.975399 0.946766 0.915554 0.886756 0.855227 0.85294 0.851475 0.850124 0.818594 0.815968 0.785308 0.782128 0.0281042
internal_count=5388335 3898704 1489631 1270529 3890581 3877712 298579 3579133 11895 3567238 3553436 3544043 3514956 3505445 3486314 3472174 3451203 3451193 3425694 3409515 3382753 3317857 3279846 3279789 3250514 3250488 3237944 3237803 3207232 26348
is_linear=0
shrinkage=1


Tree=24
num_leaves=31
num_cat=0
split_feature=10 12 12 12 12 1 14 12 0 0 1 12 12 8 9 0 9 12 8 12 9 14 12 9 12 12 8 12 9 9
split_gain=289.383 1203.08 3.33587e-07 1.33105e-07 2.04955e-05 5.07863e-06 3.94256e-06 8.95819e-07 2.59875e-05 7.37712e-07 2.07216e-06 8.05922e-07 1.85234e-06 1.01611e-05 2.43715e-06 0.000106124 1.13874e-06 8.9542e-07 2.31142e-06 1.87839e-06 1.76105e-06 1.79828e-06 8.94371e-07 1.3099e-06 2.39571e-05 8.94701e-07 2.52177e-05 5.78604e-07 1.97327e-06 1.72389e-06
threshold=0.99921567218783325 0.0026058581966254004 3.7426725212463267e-05 0.0026058581966254004 0.0025159957803181005 0.4765084866300851 1.0000000180025095e-35 0.0021222618864691505 0.33557827202978491 0.0039720366062900503 0.29599749729135511 0.0016159334826225502 0.0015191204316677002 0.031901475900814207 1.0000000180025095e-35 0.28872250646904979 3.679482420386734e-05 0.0014679764319017001 1.2499842614107797e-06 0.0012868710543721502 9.4099754174415534e-07 0.063320326356864118 0.0010167977899079503 2.6313525561133082e-06 1.7484617232406235e-05 0.00082992738922570012 0.00015977668171450002 0.00065681477191415003 0.0010322381625606002 3.940293131348183e-06
decision_type=2 2 2 2 2 2 2 2 2 2 2 2 2 2 2 2 2 2 2 2 2 2 2 2 2 2 2 2 2 2
left_child=3 2 -2 4 6 -5 -1 9 -9 10 -8 12 14 -14 15 -11 -13 19 -19 20 21 -16 23 24 -22 27 -27 29 -29 -25
right_child=1 -3 -4 5 -6 -7 7 8 -10 11 -12 16 13 -15 17 -17 -18 18 -20 -21 22 -23 -24 25 -26 26 -28 28 -30 -31
leaf_value=-5.4521169507967571 -5.4535135191328648 5.2577473357021898 -5.4526774042017889 -5.4542308932489458 -5.4587883585008434 -5.4526773999505851 -5.4518420220757529 -5.4606970027362793 -5.4526773984216845 -5.4373214721211545 -5.4526773999764284 -5.4532563184325111 -5.4562578377020863 -5.4526773999505815 -5.4521440730229003 -5.4526774001479348 -5.4526773999505824 -5.4536331719929363 -5.4526773999505833 -5.4532341745550159 -5.4451376671153406 -5.4526773999505833 -5.4529432020325466 -5.4524178103880043 -5.4526773999505824 -5.4604673165073638 -5.4526774014804715 -5.4534349937608901 -5.4526773999505842 -5.4526775505231164
leaf_weight=0.031530528390099621 0.0012038635877898987 0.032678446622384172 0.13144359964280738 0.0053934810556198745 0.0013711611909740231 0.21418108319102203 0.010081585305670049 0.0010448342634673527 0.030457300038733592 0.0011511493953654242 0.028152850980404764 0.014473728971125754 0.0023402471388463972 0.012928517455293331 0.031422036911592843 0.049772104034179421 0.020561539568006992 0.0087668490314455338 0.022717801592079923 0.015049373906577901 0.0011113270704611313 0.031802501083106449 0.03152386596050849 0.064556774961175623 0.020271223325593724 0.0010756293185635304 0.030437615531411666 0.011060160589749901 0.038565483875572681 6.1028732320520191
leaf_count=204 1724 52 43484 3724 1 444392 436 1556 45366 20 203 28 40 221 554 669 34 186 482 147 394 1119394 3978 130349 570842 4033 114107 18 91 2901606
internal_value=-5.40268 -3.33565 -5.45268 -5.45268 -5.45268 -5.45272 -5.45267 -5.45268 -5.45294 -5.45268 -5.45246 -5.45268 -5.45268 -5.45323 -5.45267 -5.45233 -5.45292 -5.45268 -5.45294 -5.45268 -5.45267 -5.45241 -5.45268 -5.45268 -5.45229 -5.45268 -5.45294 -5.45268 -5.45285 -5.45267
internal_weight=0 0.165326 0.132647 6.83467 6.6151 0.219575 6.61373 6.5822 0.0315021 6.5507 0.0382344 6.51246 6.47743 0.0152688 6.46216 0.0509233 0.0350353 6.41123 0.0314847 6.37975 6.3647 0.0632245 6.30148 6.26995 0.0213826 6.24857 0.0315132 6.21706 0.0496256 6.16743
internal_count=5388335 45260 45208 5343075 4894959 448116 4894958 4894754 46922 4847832 639 4847193 4847131 261 4846870 689 62 4846181 668 4845513 4845366 1119948 3725418 3721440 571236 3150204 118140 3032064 109 3031955
is_linear=0
shrinkage=1


Tree=25
num_leaves=31
num_cat=0
split_feature=9 9 10 4 1 6 19 1 16 13 10 19 19 4 1 10 19 19 10 19 1 10 19 19 10 1 19 1 19 9
split_gain=18.9761 606.683 544.843 286.235 0.466509 38.6612 46.3856 0.00182766 0.0186005 0.431672 1.7187e-08 4.32412e-08 1.27589e-08 9.21974e-09 1.26643e-08 2.15719e-09 1.46655e-08 9.04708e-09 1.32013e-09 1.51239e-08 3.39044e-09 3.17162e-09 1.51273e-08 7.9058e-10 4.65057e-09 5.92475e-10 1.05562e-08 3.62783e-09 6.38392e-09 8.41344e-09
threshold=0.0038808860523375003 0.0041742496696019508 0.53391043074680522 4.1388461818893829e-08 0.43214072413844656 0.012513895670784252 0.019080138501666451 0.49127667109913364 0.00051048286405825012 0.0042697546969575504 0.47292264359925412 0.0015045994473142003 1.3954611472450867e-05 9.4618727731812227e-09 0.71813213719124003 0.014638187920740451 4.0442751429662231e-05 0.035745785316985607 0.022828872614305554 9.3655992328525338e-05 0.62006819440116623 0.03290560443174801 0.00016656854672655004 0.021128713618390353 0.014638187920740451 0.50242603371741323 0.00026037052623660003 0.50441404837740766 0.00045633847777845003 0.0073796804623048511
decision_type=2 2 2 2 2 2 2 2 2 2 2 2 2 2 2 2 2 2 2 2 2 2 2 2 2 2 2 2 2 2
left_child=4 2 10 -4 5 -1 -7 8 23 -10 11 -2 -9 14 -13 17 -17 -14 20 -20 -18 -21 -23 24 -3 -24 -27 -28 29 -29
right_child=1 7 3 -5 -6 6 -8 12 9 -11 -12 13 15 -15 -16 16 18 -19 19 21 -22 22 25 -25 -26 26 27 28 -30 -31
leaf_value=-5.452677495555351 -5.4524135490715366 -5.4525816396764304 -5.4527171314594804 5.6473279929434739 -5.4526774113719094 -5.4526774257615021 5.6473226345967831 -5.45284070874263 -4.3960386918596637 -5.4526774283764023 -5.4528290094987018 -5.4528783684991353 -5.4525354284791039 -5.452677424838285 -5.4526774257614976 -5.4528634566759653 -5.4526177622618519 -5.452677425761518 -5.4528692926087192 -5.4526372788890862 -5.4526774257601867 -5.4528693349012096 -5.4526699208910019 -5.4526774237497584 -5.4526774257615198 -5.4528125375233776 -5.4526310920021537 -5.4528667925531007 -5.4526773899772412 -5.4526774265646365
leaf_weight=0.29648501768611257 0.0015171504928729309 0.0014941123837423085 0.0072196461260318747 0.029699444770812988 5.0135160684024527 0.0020561695432199647 0.001735680503770709 0.0011969083779347347 0.0010129634068327667 0.021112384288358044 0.0018921823357231906 0.0014266389189288011 0.0013884829612819108 0.025218876078724861 0.0017410049913451076 0.0010598301443350824 0.0033041621365440541 0.0058387430035509169 0.0010274723888982198 0.0049104351979990515 0.0085233952393082291 0.0010272497482758372 0.026040542892893259 0.18517500720918179 0.0083434015577950049 0.0014464388594105362 0.0042178943699225915 0.0010320173335925933 1.3379815105038231 0.0013588962974608876
leaf_count=48432 2743 27 381 308 5263629 2436 18 26732 207 2802 562 59 215 392 72 10277 43 10 4144 26 27 2533 63 295 139 1938 18 689 18086 1032
internal_value=-5.40268 -5.25654 -0.655125 3.47668 -5.44905 -5.38852 -0.371766 -5.45202 -5.44775 -5.4043 -5.45268 -5.45267 -5.45268 -5.45269 -5.45277 -5.45268 -5.45268 -5.45265 -5.45268 -5.45268 -5.45266 -5.45268 -5.45268 -5.45268 -5.45266 -5.45268 -5.45268 -5.45268 -5.45268 -5.45276
internal_weight=0 1.68621 0.0687149 0.0369191 5.31379 0.300277 0.00379185 1.61749 0.217138 0.0221253 0.0317959 0.0299037 1.40035 0.0283865 0.00316764 1.39916 1.39193 0.00722723 1.39087 1.37904 0.0118276 1.37801 1.3731 0.195013 0.00983751 1.37208 1.34604 1.34459 1.34037 0.00239091
